{
  "InputNeurons":784,
  "HiddenNeurons":30,
  "OutputNeurons":10,
  "HiddenBiases" : [
    1.386636,
    0.546931,
    0.346058,
    1.617769,
    -1.121200,
    0.655494,
    -1.871052,
    -3.203545,
    1.762201,
    0.978980,
    1.087220,
    -1.226022,
    -0.884225,
    0.054946,
    0.073468,
    -0.276905,
    -0.325183,
    -1.240395,
    1.470878,
    -0.958133,
    0.071437,
    1.994179,
    -0.418899,
    -2.006643,
    -0.841956,
    0.725050,
    -0.773935,
    1.044399,
    1.368171,
    -1.310689
  ],
  "HiddenWeights" : [
    0.876290,
    0.103833,
    -0.779946,
    -0.069598,
    -1.305256,
    0.608293,
    -1.717204,
    0.737044,
    -1.342971,
    -2.117878,
    0.596511,
    -1.301308,
    -0.106495,
    -0.544405,
    1.436664,
    0.091724,
    -0.113658,
    -1.068270,
    -1.084540,
    0.789700,
    -0.211951,
    -0.991770,
    -0.444519,
    0.450825,
    0.203559,
    -0.513115,
    0.039117,
    -0.548219,
    2.064862,
    1.598954,
    2.162697,
    0.841636,
    0.284951,
    1.058648,
    1.785667,
    0.659024,
    -0.265031,
    -1.449384,
    -1.450326,
    1.286852,
    -0.157034,
    2.564062,
    0.409302,
    -0.358592,
    0.166857,
    -0.029106,
    -0.861695,
    0.496624,
    1.230284,
    1.868302,
    1.282165,
    0.259068,
    0.330528,
    -1.035550,
    -0.000599,
    -0.728427,
    1.293848,
    0.370709,
    -1.430579,
    0.544094,
    -0.890943,
    0.075560,
    -0.486841,
    0.972109,
    -1.504554,
    -1.047083,
    -1.032074,
    -1.402401,
    1.668338,
    -0.481862,
    0.351989,
    0.424153,
    1.267981,
    -0.522997,
    0.948060,
    -1.081504,
    -0.639311,
    -0.202221,
    -0.345136,
    -0.314323,
    1.331945,
    -1.010801,
    -0.147689,
    1.146623,
    0.722845,
    -1.178220,
    0.229595,
    -0.233427,
    -0.240759,
    0.303544,
    -0.944316,
    0.135286,
    -0.775250,
    0.630635,
    0.518319,
    1.254956,
    0.953183,
    1.699723,
    0.284899,
    -1.008593,
    1.631422,
    -0.146004,
    1.687071,
    1.061847,
    -0.041835,
    -1.618883,
    -1.733563,
    0.652264,
    -1.059127,
    0.847835,
    0.324395,
    -0.045065,
    1.171742,
    1.139812,
    -0.180923,
    -1.742617,
    -0.302240,
    -0.763760,
    0.624511,
    -1.271600,
    0.999801,
    1.057860,
    -0.043032,
    -0.699636,
    0.965832,
    2.147687,
    -0.598788,
    1.685607,
    0.626063,
    1.554686,
    -1.090018,
    -0.767505,
    -1.409589,
    0.309049,
    -0.114016,
    -0.296068,
    0.103512,
    -0.197652,
    1.290867,
    0.210710,
    -0.915965,
    1.230503,
    -0.450918,
    0.608445,
    1.437682,
    -0.061373,
    -0.554763,
    -0.759666,
    0.436544,
    -1.356456,
    -0.580596,
    0.153900,
    -0.660054,
    -0.138851,
    -0.032179,
    -0.655076,
    0.780491,
    0.931071,
    0.362793,
    -0.722379,
    1.207627,
    -1.135163,
    1.210263,
    -0.559352,
    0.063834,
    0.594296,
    1.586270,
    -0.209723,
    -0.977707,
    0.900258,
    0.483097,
    -1.451807,
    0.436726,
    -0.692477,
    0.339719,
    1.837204,
    0.409511,
    -0.247810,
    -1.191152,
    2.119995,
    -0.446402,
    -0.632583,
    -1.699939,
    0.671701,
    0.253847,
    -0.068799,
    1.117552,
    -0.514380,
    1.952160,
    -1.668461,
    1.721868,
    -0.010030,
    -1.606003,
    -0.967535,
    -0.580925,
    0.283939,
    0.007234,
    0.694183,
    2.023535,
    -2.418570,
    -0.391298,
    1.487991,
    -0.623752,
    1.099544,
    -0.076704,
    -0.765440,
    0.824853,
    1.372770,
    0.941571,
    -0.506109,
    -0.478710,
    2.406730,
    -0.462937,
    -0.397725,
    1.847695,
    -1.276411,
    -1.359337,
    -0.088889,
    0.119873,
    -0.015038,
    0.825450,
    0.982245,
    1.161466,
    1.786122,
    0.688178,
    -2.565748,
    0.458021,
    1.216259,
    -0.067921,
    -0.049762,
    -0.518542,
    0.272503,
    0.165214,
    -0.087789,
    1.100495,
    1.329027,
    1.623068,
    0.446891,
    0.993141,
    -0.370348,
    0.043640,
    1.365191,
    0.833309,
    -0.909603,
    1.870319,
    0.964684,
    -0.237321,
    1.563497,
    -1.357216,
    1.408053,
    -1.590856,
    0.791326,
    0.636789,
    0.711836,
    -0.612373,
    1.159810,
    -0.218634,
    -0.261483,
    0.509355,
    1.631892,
    1.024766,
    -1.111102,
    0.235914,
    1.807488,
    1.483062,
    -0.287176,
    -1.037005,
    1.197205,
    -0.104179,
    -2.027749,
    1.694257,
    0.354588,
    -0.570277,
    0.634510,
    -1.039572,
    0.167284,
    0.016167,
    -1.497006,
    1.182522,
    0.715579,
    -1.052573,
    0.792392,
    -1.823357,
    0.072746,
    -0.473745,
    -0.948263,
    0.745048,
    1.179396,
    1.117635,
    1.856632,
    -0.364742,
    -1.257726,
    0.348344,
    0.447183,
    0.671431,
    -1.142354,
    0.090471,
    2.558875,
    0.034070,
    1.041306,
    0.739929,
    0.564626,
    1.402685,
    -0.670761,
    -0.091381,
    1.407132,
    1.029193,
    -0.060231,
    0.422285,
    -0.866192,
    -0.691401,
    -0.751470,
    2.186982,
    0.461369,
    -1.707838,
    -1.698774,
    0.915580,
    0.258227,
    0.554115,
    0.316121,
    0.688288,
    -1.261761,
    0.651349,
    -0.900632,
    1.384893,
    0.792631,
    0.662018,
    1.507015,
    1.364239,
    -1.718048,
    -0.129748,
    -0.079307,
    -0.534688,
    -0.482558,
    0.933446,
    -1.335483,
    0.667747,
    -0.931330,
    -2.269921,
    -1.275134,
    -0.523301,
    0.980039,
    -0.082327,
    2.290483,
    0.089753,
    -0.498006,
    -0.575807,
    -0.717853,
    -1.816476,
    1.329305,
    1.107303,
    0.654752,
    -0.880990,
    0.076130,
    -0.785362,
    0.967318,
    1.169316,
    -1.646511,
    -0.762197,
    0.832458,
    1.441312,
    -0.177980,
    1.383156,
    -0.405062,
    1.207698,
    -0.695058,
    -0.370258,
    -0.394279,
    0.639221,
    1.774200,
    -0.430937,
    0.263733,
    -1.030161,
    -0.119211,
    0.982546,
    0.112785,
    -1.224786,
    0.416083,
    -0.676454,
    0.266960,
    0.805823,
    0.487540,
    -0.401705,
    1.336751,
    1.442727,
    1.970823,
    1.015716,
    0.488122,
    -0.208642,
    0.219601,
    -0.840361,
    -1.102928,
    -0.709212,
    0.127416,
    -0.233706,
    0.557821,
    -1.642811,
    -1.094646,
    -0.018038,
    -0.782817,
    0.109403,
    1.459167,
    0.032642,
    1.307656,
    -0.890778,
    0.521248,
    1.117427,
    -0.409760,
    2.131340,
    0.957591,
    1.103868,
    1.557253,
    -1.339683,
    -0.573982,
    -1.250076,
    0.435909,
    0.608153,
    -1.734459,
    0.286326,
    -2.206627,
    0.662696,
    0.313352,
    0.585876,
    -1.785915,
    -0.222269,
    0.030780,
    -0.595334,
    -0.118047,
    -0.237673,
    0.028961,
    -1.284968,
    1.085958,
    0.539374,
    -0.557702,
    2.462985,
    0.780368,
    0.285965,
    -0.025332,
    0.933668,
    0.359430,
    -0.018121,
    -0.116014,
    -0.371892,
    0.789709,
    0.580981,
    -0.060203,
    -0.608721,
    0.060988,
    0.013855,
    -0.511671,
    -0.432275,
    -0.725698,
    0.888647,
    0.836178,
    -0.967798,
    -0.010709,
    1.869093,
    -0.243698,
    -1.551532,
    -0.014916,
    1.754491,
    -1.143040,
    -0.670657,
    0.004296,
    -0.951802,
    -0.434240,
    -0.592784,
    1.405808,
    1.063536,
    0.399584,
    0.723854,
    -2.212555,
    -0.480197,
    -0.912963,
    0.831745,
    -0.399591,
    -0.872956,
    0.345548,
    0.241398,
    0.394090,
    -0.042380,
    1.553774,
    0.439057,
    1.262725,
    -0.402616,
    0.286206,
    1.681845,
    0.144698,
    -0.148874,
    1.411260,
    0.013510,
    -1.765776,
    0.141392,
    -1.908108,
    1.111355,
    -0.643587,
    -0.278801,
    1.503402,
    0.786509,
    0.036042,
    0.378367,
    -0.319411,
    -1.558830,
    2.267259,
    1.075655,
    2.062688,
    0.006927,
    1.018376,
    1.041808,
    -0.808769,
    -0.473045,
    1.705495,
    0.436475,
    -1.360919,
    0.955731,
    1.321335,
    1.132987,
    0.544339,
    0.653461,
    1.222772,
    2.187990,
    0.154837,
    -0.215671,
    0.362182,
    1.117223,
    0.702519,
    0.981271,
    0.849209,
    -0.444875,
    -1.592924,
    0.716309,
    -0.467481,
    0.826416,
    -0.315569,
    0.324410,
    -0.142253,
    0.937361,
    1.020112,
    -0.421041,
    -0.615362,
    -0.750397,
    0.906462,
    0.397188,
    -0.350430,
    -0.392388,
    -0.656425,
    1.562478,
    -0.096051,
    -0.017813,
    1.334289,
    1.416239,
    -0.858320,
    -2.583505,
    -0.690869,
    0.909938,
    0.621076,
    0.990490,
    0.112575,
    -0.780656,
    0.143371,
    0.785520,
    -0.411318,
    -0.857905,
    -1.012456,
    -0.413420,
    1.467037,
    1.362391,
    -0.214239,
    -1.846796,
    0.409542,
    0.518775,
    -0.230976,
    1.806474,
    1.135996,
    0.594577,
    -0.969666,
    -0.049821,
    1.344603,
    1.957722,
    -0.778932,
    0.065091,
    0.383223,
    -1.464886,
    -0.833339,
    -0.074239,
    0.487944,
    0.546301,
    -0.084494,
    0.025653,
    0.551172,
    -0.086377,
    0.505848,
    1.500621,
    0.508555,
    -1.564542,
    -0.291649,
    0.776629,
    1.068719,
    0.662441,
    0.608686,
    -1.050984,
    0.964883,
    0.506909,
    2.118763,
    -0.812922,
    -0.163257,
    0.565607,
    0.272335,
    -1.175797,
    -1.187647,
    -0.771097,
    -1.065182,
    0.126084,
    -0.066531,
    -0.206890,
    -0.743738,
    1.761357,
    -0.283605,
    -0.185181,
    -0.643743,
    0.241164,
    1.214116,
    -1.206609,
    0.416788,
    -0.974275,
    1.490456,
    0.903858,
    -0.762018,
    -0.248113,
    1.248845,
    -0.422586,
    1.175720,
    0.438191,
    -0.055191,
    -2.304333,
    -0.371126,
    0.803175,
    -2.312018,
    0.537606,
    0.977633,
    1.260182,
    -1.300140,
    0.846947,
    0.201901,
    -0.777249,
    0.695655,
    -0.858525,
    0.077427,
    1.511569,
    0.319222,
    0.110782,
    0.360996,
    -1.700823,
    0.442355,
    0.540673,
    1.277550,
    -1.046525,
    0.988956,
    -0.806036,
    0.863946,
    -0.156854,
    -0.528422,
    0.118973,
    1.553534,
    0.247784,
    -0.723491,
    0.942039,
    -0.836076,
    1.238205,
    -0.131406,
    -0.783598,
    -0.349203,
    0.006526,
    -1.436404,
    -0.310840,
    -0.549121,
    2.267984,
    0.879434,
    0.205912,
    0.189696,
    -1.082024,
    -2.107522,
    2.209635,
    0.509553,
    1.058060,
    0.267770,
    -0.063695,
    1.153583,
    0.984127,
    -1.031597,
    1.648143,
    -0.284791,
    -1.923791,
    1.492525,
    0.226172,
    0.287423,
    -0.310073,
    1.096240,
    -2.536745,
    0.413082,
    1.013996,
    -2.085065,
    -0.584285,
    -0.081215,
    -1.682836,
    0.740345,
    -1.248566,
    0.206892,
    -1.117699,
    -0.839121,
    1.047076,
    0.364003,
    -0.079709,
    -1.142661,
    -0.703577,
    -0.946666,
    1.131036,
    0.412105,
    0.446060,
    1.334276,
    -1.189116,
    -0.126740,
    -2.604559,
    -0.667488,
    1.408459,
    -0.328631,
    -1.992988,
    0.680921,
    0.781150,
    0.897690,
    1.071408,
    -0.145834,
    1.724644,
    -0.960564,
    -1.704695,
    -0.064003,
    -0.747644,
    0.567933,
    -0.005604,
    -0.106353,
    -0.699241,
    -0.234104,
    -1.266406,
    1.427169,
    -1.181235,
    0.138773,
    0.579716,
    -0.055384,
    0.128180,
    0.202535,
    -0.377780,
    -1.769711,
    -1.219456,
    -1.647201,
    -0.240379,
    -0.629372,
    1.422903,
    0.309371,
    0.249915,
    0.423214,
    0.472956,
    -1.151684,
    1.266721,
    -1.428807,
    0.164781,
    1.408912,
    0.985507,
    0.502515,
    0.410242,
    0.839466,
    -1.667348,
    0.265977,
    -1.126112,
    0.502420,
    0.284022,
    0.167407,
    1.293711,
    1.017504,
    1.370694,
    0.318316,
    -0.770548,
    -1.285441,
    -0.924117,
    -1.058629,
    0.662883,
    0.514522,
    0.286407,
    0.401797,
    0.086540,
    -1.224848,
    -0.907862,
    -0.216559,
    -0.132073,
    -1.037868,
    0.774024,
    -1.068096,
    1.656399,
    0.125612,
    -0.326088,
    1.866861,
    -1.561473,
    -1.643338,
    1.964326,
    0.829482,
    -0.296515,
    -1.294987,
    -1.402122,
    -1.672599,
    0.613818,
    1.114817,
    -1.731301,
    -0.057414,
    0.148089,
    0.555154,
    0.808557,
    1.887659,
    1.089298,
    0.345673,
    1.305174,
    -0.578230,
    -1.007615,
    0.637421,
    0.569000,
    0.225973,
    0.428564,
    0.466985,
    0.700226,
    -0.353299,
    0.702041,
    0.345860,
    -0.127121,
    -0.966322,
    1.333260,
    -0.464246,
    -0.510819,
    -0.261702,
    0.108017,
    0.024235,
    1.113465,
    1.918535,
    0.649614,
    -0.028797,
    -2.125211,
    0.855050,
    0.626962,
    -1.186728,
    0.549081,
    -0.781995,
    1.151859,
    -0.259176,
    -0.345888,
    0.462899,
    1.619955,
    -0.225756,
    1.429747,
    1.146748,
    -0.235510,
    -1.409253,
    1.014742,
    -0.458512,
    1.870438,
    1.550968,
    -0.830074,
    0.361114,
    0.734337,
    -0.456392,
    1.264450,
    -0.683504,
    -0.407222,
    2.503112,
    -0.847740,
    -0.617658,
    -0.078850,
    0.979778,
    -0.701537,
    -1.024462,
    0.785690,
    -0.278509,
    0.360269,
    0.103550,
    1.766618,
    0.568751,
    1.135326,
    1.482945,
    -2.294518,
    1.520233,
    -0.580811,
    2.948391,
    -1.790779,
    -0.817012,
    1.571961,
    0.625379,
    -0.162750,
    0.343791,
    1.292894,
    0.059708,
    1.067622,
    -0.048609,
    -0.546000,
    -0.852175,
    1.933129,
    0.872230,
    -0.753581,
    1.142342,
    0.975342,
    0.789328,
    0.603028,
    0.836951,
    0.051435,
    2.004445,
    0.876158,
    0.462694,
    -0.164020,
    2.105181,
    0.053682,
    1.002864,
    2.020036,
    -0.842809,
    -1.297885,
    -1.859848,
    -1.058344,
    -0.537377,
    0.390265,
    -0.818482,
    -0.445499,
    1.208833,
    -0.926496,
    1.626979,
    1.347099,
    0.058407,
    -1.141799,
    -1.003530,
    2.182897,
    -1.347189,
    1.766783,
    1.556778,
    0.000176,
    -0.366579,
    1.208612,
    -0.076623,
    -0.358537,
    0.861483,
    -1.201451,
    -0.690178,
    -0.601028,
    -0.472694,
    0.354705,
    0.652679,
    1.244147,
    -0.778614,
    -1.172617,
    0.242879,
    -0.686839,
    0.100427,
    -0.519956,
    -0.334112,
    -1.688913,
    1.100186,
    0.190822,
    1.378847,
    -1.115087,
    1.330839,
    2.061674,
    1.137135,
    1.223072,
    0.129361,
    -0.565127,
    -0.009667,
    1.508216,
    -1.269810,
    0.442456,
    0.073218,
    -0.469760,
    -1.469249,
    -1.000163,
    0.021639,
    -1.953186,
    0.798643,
    0.618054,
    0.551861,
    -0.078269,
    -0.714051,
    0.300393,
    -1.570742,
    -1.036263,
    -0.345938,
    0.604759,
    0.934509,
    -0.411723,
    0.055161,
    -0.292663,
    -0.322229,
    1.406329,
    1.620573,
    0.412860,
    0.539707,
    1.088969,
    0.905073,
    -1.397121,
    -0.189292,
    0.829175,
    0.225739,
    1.649383,
    -0.202181,
    -0.722332,
    -2.044568,
    -0.826824,
    -1.521482,
    0.683678,
    -0.126441,
    -0.529410,
    -0.284718,
    0.191068,
    0.609499,
    1.183379,
    1.316407,
    -1.081659,
    2.824344,
    1.075228,
    0.971932,
    0.560814,
    -0.426717,
    1.249765,
    0.738969,
    -0.853978,
    -1.129326,
    1.970222,
    -0.541320,
    0.302535,
    0.272263,
    -1.591147,
    0.944637,
    -0.632222,
    -0.382028,
    -0.725360,
    0.284704,
    0.118807,
    -0.249087,
    -0.683566,
    0.656811,
    0.878189,
    -0.816952,
    1.296116,
    0.195495,
    2.266210,
    0.967756,
    0.403491,
    0.184030,
    2.299414,
    0.886124,
    1.341154,
    1.809029,
    0.742414,
    1.082220,
    -0.852814,
    -0.831654,
    -1.842582,
    0.734121,
    0.000056,
    -1.199981,
    -0.492941,
    -0.130875,
    0.621459,
    0.563918,
    -0.905544,
    1.292656,
    0.095151,
    -1.170288,
    1.620623,
    0.346224,
    0.535133,
    -0.869427,
    -0.336188,
    1.322176,
    -0.297833,
    0.695502,
    0.524536,
    -1.653256,
    0.834905,
    2.603424,
    1.576002,
    1.119622,
    2.029585,
    1.335878,
    0.256067,
    -0.924690,
    -0.929453,
    -0.990833,
    -1.556999,
    0.084335,
    1.291337,
    -0.354014,
    0.864422,
    -0.110593,
    1.018797,
    0.987199,
    1.031493,
    0.247586,
    0.854541,
    1.033881,
    -0.832747,
    1.329566,
    -0.031194,
    -0.805259,
    -1.711475,
    -1.924550,
    -2.693020,
    -0.298310,
    0.307188,
    1.748362,
    -0.829236,
    1.798585,
    0.703764,
    2.743140,
    0.663718,
    0.062480,
    1.302906,
    0.111418,
    -0.646687,
    0.736216,
    0.117113,
    0.512512,
    1.169702,
    -0.375696,
    -0.598663,
    0.055437,
    -1.134094,
    -0.691537,
    -2.890644,
    -0.540108,
    -1.864897,
    -1.389321,
    -3.110310,
    -3.342089,
    -2.217234,
    -2.616515,
    -1.614222,
    -0.603343,
    1.168957,
    -1.065303,
    0.204540,
    -1.827821,
    1.273794,
    0.969074,
    0.341695,
    1.729407,
    -1.158633,
    -1.070636,
    -0.503814,
    0.320552,
    -1.436136,
    1.239174,
    1.258036,
    -2.000160,
    -0.463035,
    -0.480308,
    -0.820183,
    -1.734112,
    -3.459496,
    -3.657122,
    -2.375579,
    -0.591584,
    -0.916879,
    -2.158219,
    -0.250257,
    -0.225524,
    -0.092683,
    -1.717088,
    -0.281332,
    -1.867963,
    0.370855,
    1.509237,
    0.285180,
    -0.414285,
    -1.459202,
    0.526058,
    -2.132422,
    -0.123104,
    -1.596202,
    1.594355,
    -0.479751,
    0.301978,
    -1.661655,
    0.191224,
    -0.951881,
    -1.042134,
    -1.734024,
    -2.107586,
    -0.415392,
    -0.338370,
    -0.928991,
    -1.119850,
    0.037951,
    -2.346866,
    -0.957632,
    0.953512,
    -1.199232,
    2.511464,
    1.466329,
    -1.217057,
    0.614470,
    1.652457,
    -0.573290,
    1.324380,
    0.749465,
    0.682789,
    2.313280,
    0.260957,
    -1.130538,
    2.626665,
    -0.576634,
    0.042604,
    -2.865645,
    -0.106324,
    0.683838,
    1.067397,
    -1.292865,
    -2.028607,
    0.640471,
    -0.482218,
    -0.051388,
    -0.034334,
    -1.380202,
    -0.682397,
    0.763224,
    2.007383,
    -0.198907,
    -0.836411,
    0.836604,
    0.027951,
    -0.070845,
    1.173174,
    -0.882002,
    -0.173877,
    -1.450615,
    1.189862,
    0.995697,
    -1.901797,
    0.575027,
    -0.040792,
    1.417342,
    -0.123184,
    0.518352,
    -0.893333,
    -0.508278,
    1.733489,
    -0.070197,
    -0.872687,
    -0.445319,
    -0.150550,
    -1.495370,
    -0.113021,
    0.418663,
    0.630550,
    1.150355,
    0.827718,
    1.236367,
    -0.148043,
    1.796337,
    2.139636,
    1.238114,
    0.541143,
    0.496747,
    -0.114293,
    0.132280,
    -0.025158,
    0.488171,
    1.416587,
    1.130319,
    1.968854,
    0.579028,
    -0.131358,
    -1.110341,
    0.874990,
    0.239742,
    -0.509260,
    -0.256691,
    -1.635187,
    1.563879,
    -0.488185,
    -0.439589,
    0.532354,
    0.255333,
    -0.217079,
    1.196084,
    2.089690,
    -0.619697,
    0.167045,
    0.546173,
    -0.653574,
    0.083547,
    0.411691,
    0.241710,
    -0.669177,
    0.827397,
    -0.452205,
    0.085492,
    -0.955685,
    1.709454,
    1.025753,
    0.964736,
    1.045281,
    1.256460,
    -0.474956,
    -0.014325,
    -0.269016,
    -1.263186,
    -0.774474,
    0.382661,
    -0.818081,
    0.662304,
    0.517295,
    0.366337,
    -0.425059,
    1.357357,
    0.711125,
    -1.225423,
    0.362047,
    -1.157068,
    -0.536544,
    -0.631482,
    -0.043783,
    0.247948,
    0.135715,
    1.950266,
    0.844626,
    0.069204,
    1.064332,
    -1.045273,
    -0.326686,
    1.429289,
    -0.122209,
    -0.614249,
    -0.982056,
    -0.104893,
    -0.192013,
    0.213456,
    -1.500552,
    -0.302538,
    1.867126,
    0.569257,
    2.414354,
    -0.855466,
    1.313900,
    0.802973,
    1.589224,
    0.874694,
    -0.484649,
    -0.140235,
    0.677993,
    -1.406455,
    -1.277346,
    1.463252,
    -0.105439,
    0.239301,
    0.455564,
    1.002828,
    0.374864,
    -0.298473,
    -0.650812,
    1.626705,
    -1.436490,
    0.744741,
    -0.366356,
    0.360718,
    1.351153,
    1.515974,
    0.635367,
    1.488040,
    -0.177907,
    1.426664,
    0.563677,
    0.087770,
    0.178073,
    -0.258580,
    -0.521586,
    0.739265,
    0.090550,
    -0.431537,
    -0.876941,
    1.336015,
    -1.024554,
    0.883848,
    -1.055421,
    -0.488880,
    0.492400,
    0.003721,
    -0.082677,
    0.549275,
    -0.800857,
    -0.204911,
    -0.399150,
    -0.541278,
    0.086664,
    1.448532,
    1.130419,
    1.102690,
    -0.058798,
    0.460636,
    -1.071089,
    0.752065,
    1.730636,
    1.671621,
    0.315492,
    1.229501,
    -0.468603,
    -1.579388,
    -1.160591,
    0.114004,
    -1.449451,
    -0.378535,
    -0.528296,
    -1.024413,
    -0.333520,
    -0.157352,
    0.705509,
    0.264716,
    0.036334,
    1.218116,
    0.110821,
    0.265045,
    -2.950945,
    1.182141,
    0.068863,
    0.884261,
    0.072382,
    -0.214407,
    0.004968,
    -1.363526,
    -0.243794,
    0.478124,
    -0.050909,
    -1.637293,
    -0.695186,
    0.047983,
    1.019646,
    -0.275364,
    0.327969,
    0.271590,
    -1.016706,
    -0.442363,
    0.025404,
    -1.837947,
    -1.919302,
    -0.605916,
    -1.365471,
    0.758190,
    -0.494595,
    -0.009290,
    1.038723,
    -0.778314,
    -0.429546,
    -1.772704,
    -1.403564,
    0.626141,
    0.484002,
    0.482538,
    0.589052,
    0.839720,
    0.489786,
    1.241312,
    0.423636,
    1.283875,
    1.146509,
    -0.160358,
    -0.930252,
    -0.262231,
    -0.419574,
    -1.506320,
    0.548243,
    -0.209721,
    -0.052503,
    0.152930,
    -1.301822,
    0.472151,
    0.630482,
    -0.888052,
    0.096658,
    -0.091295,
    0.479310,
    0.624258,
    -1.021087,
    -0.429772,
    0.489629,
    -0.671010,
    0.441569,
    -0.251903,
    -0.502553,
    1.797709,
    0.574139,
    0.323561,
    0.303996,
    0.028314,
    -0.647859,
    0.521075,
    0.790970,
    0.172252,
    0.673899,
    1.887308,
    0.329132,
    1.076406,
    0.609793,
    0.124550,
    0.298575,
    -1.443051,
    0.165160,
    -1.192244,
    0.065484,
    -0.391451,
    1.886610,
    -0.892456,
    0.407020,
    0.105126,
    0.531670,
    -0.490024,
    -1.154522,
    0.276681,
    1.406973,
    1.035949,
    0.439019,
    0.738323,
    -0.717608,
    0.470737,
    0.433716,
    1.094074,
    -1.940821,
    -1.047384,
    -0.661027,
    -1.237798,
    0.009828,
    2.581251,
    0.393862,
    0.578802,
    -0.451011,
    -0.836352,
    -0.404192,
    1.564021,
    0.973870,
    0.040328,
    1.527853,
    0.629802,
    -2.680445,
    0.445575,
    0.466332,
    0.154606,
    0.013777,
    -0.566433,
    -0.147074,
    -0.260514,
    -1.217810,
    -0.904270,
    -0.227788,
    -0.442966,
    1.739921,
    0.879310,
    -0.841976,
    0.816252,
    -0.028174,
    -0.019858,
    -0.211803,
    1.800505,
    -0.264898,
    -0.006036,
    -0.045364,
    0.551278,
    1.624997,
    1.148601,
    1.414660,
    -1.316499,
    -0.115106,
    1.900853,
    -0.502239,
    -1.666046,
    -1.887214,
    -1.265328,
    1.042749,
    2.632727,
    -1.914618,
    -0.930899,
    -0.380615,
    -0.220545,
    -1.077276,
    1.390283,
    0.967065,
    -1.179290,
    0.241781,
    1.815641,
    1.346492,
    -0.386366,
    1.018277,
    0.369022,
    0.105120,
    0.281149,
    0.812424,
    -0.163588,
    -0.858103,
    0.070793,
    0.143922,
    -1.188655,
    -1.104787,
    0.133815,
    0.890443,
    -1.219356,
    0.727561,
    -1.883535,
    -0.232170,
    -0.287478,
    -1.231165,
    -0.050080,
    -0.481930,
    1.569246,
    0.004853,
    -0.613047,
    0.810887,
    -0.224793,
    -0.731729,
    -1.152989,
    -0.355406,
    1.105424,
    1.011049,
    -0.510585,
    -0.144072,
    1.368110,
    0.597104,
    -0.421088,
    1.181049,
    0.164876,
    0.346056,
    0.560607,
    0.876999,
    1.341495,
    -0.449007,
    2.145919,
    0.045524,
    -0.714535,
    -1.740525,
    1.809612,
    -0.555878,
    -0.553424,
    -0.429761,
    -1.168044,
    0.639524,
    1.223759,
    -0.577942,
    0.027234,
    0.144860,
    -0.065786,
    -0.410828,
    0.094497,
    0.660846,
    0.417734,
    1.293225,
    -1.456434,
    0.722357,
    1.797281,
    0.632004,
    -2.438550,
    1.146625,
    0.451667,
    -0.004773,
    0.614737,
    -0.513869,
    -1.554628,
    -1.696720,
    0.515143,
    -0.122929,
    -0.718917,
    0.442043,
    -0.238750,
    0.376238,
    0.167616,
    1.172421,
    0.189039,
    1.748230,
    0.093233,
    0.903557,
    -0.809565,
    1.113505,
    -1.673901,
    0.571928,
    0.978055,
    -0.199753,
    0.423323,
    -0.369808,
    0.823295,
    0.553780,
    0.997016,
    1.399859,
    0.250651,
    0.439193,
    1.652714,
    -0.424203,
    0.331580,
    -0.631697,
    -1.698773,
    0.654353,
    1.228597,
    -1.434015,
    1.139751,
    0.850113,
    0.431721,
    -0.874869,
    1.131249,
    -0.848039,
    -0.584410,
    0.483731,
    0.674912,
    0.838398,
    -0.600837,
    -0.362842,
    1.032610,
    -0.741766,
    -2.053439,
    2.461770,
    0.422762,
    1.367149,
    -0.908251,
    0.844971,
    -0.185166,
    2.734119,
    0.947525,
    -0.549324,
    1.399154,
    -0.417298,
    0.900157,
    0.802394,
    0.400689,
    0.246784,
    -0.865737,
    -0.271057,
    -0.339251,
    0.254990,
    -0.469050,
    -0.548291,
    0.142766,
    0.012660,
    -0.878253,
    0.913414,
    -0.984905,
    -0.311592,
    -0.442619,
    0.286444,
    1.209610,
    -0.236477,
    1.022116,
    1.811579,
    -1.696471,
    -0.779501,
    -0.706275,
    -1.823065,
    -1.036411,
    -0.848680,
    -1.473461,
    -0.782079,
    -2.369430,
    -0.211869,
    -0.528131,
    -1.187158,
    0.881886,
    1.420146,
    1.475337,
    0.094218,
    -0.654793,
    -1.192398,
    1.690017,
    -0.709082,
    -0.086566,
    -0.582591,
    0.135598,
    0.613241,
    2.334899,
    0.782407,
    0.038919,
    0.416584,
    -0.744010,
    -1.905339,
    -2.010980,
    -2.821286,
    -3.167316,
    -1.693103,
    -2.835074,
    -2.165401,
    -1.122610,
    -2.053607,
    0.326638,
    -1.557399,
    2.222641,
    0.068040,
    0.946237,
    -1.175058,
    0.769218,
    0.658203,
    -0.240328,
    -0.853176,
    -0.427432,
    0.711645,
    -0.831640,
    0.479606,
    -1.045517,
    -0.085863,
    -0.038642,
    -0.373022,
    -0.490695,
    -1.564050,
    -1.425605,
    -2.153415,
    -1.673778,
    -1.121737,
    -2.074413,
    -0.941315,
    -0.711607,
    -0.964949,
    -0.469668,
    0.474761,
    -0.045798,
    -0.912906,
    -0.685679,
    0.978900,
    1.213734,
    0.098265,
    0.213622,
    1.955981,
    -0.297543,
    -0.980642,
    0.325936,
    1.509108,
    0.500130,
    0.187089,
    -0.365208,
    -1.273156,
    -1.009296,
    -1.207416,
    0.201144,
    -3.579508,
    -2.267454,
    -3.225699,
    -0.313432,
    0.427539,
    -0.549982,
    0.331466,
    0.172329,
    0.715980,
    -0.819319,
    1.808474,
    0.200344,
    1.739658,
    -1.875698,
    1.554408,
    -0.684851,
    -0.074720,
    -0.009760,
    -0.117810,
    0.393819,
    -1.102938,
    -2.405585,
    0.535509,
    -0.155029,
    -0.882046,
    -0.125738,
    -0.360064,
    0.139955,
    -1.301778,
    -3.094099,
    0.581263,
    -0.452382,
    -1.162369,
    -0.389545,
    -0.337402,
    -2.340986,
    -1.053408,
    1.227786,
    2.467433,
    0.378776,
    0.403064,
    -0.042889,
    -0.722017,
    -0.268790,
    -0.387622,
    2.024695,
    -2.665109,
    0.363351,
    0.299802,
    -0.866815,
    -1.172547,
    -0.268285,
    2.181272,
    -0.607323,
    0.380955,
    0.438176,
    -2.215896,
    -2.866280,
    -1.304552,
    0.573926,
    -0.848148,
    -1.243546,
    -2.389237,
    -1.172521,
    -1.955395,
    -1.270030,
    -1.240674,
    0.146302,
    -2.188931,
    -1.141311,
    0.373000,
    -3.745339,
    0.931614,
    -0.428467,
    -0.874856,
    -2.279948,
    -1.346588,
    0.506464,
    0.320368,
    -0.838812,
    -0.533900,
    1.873896,
    1.348183,
    4.093845,
    1.717354,
    -1.195020,
    0.151173,
    -1.091356,
    -0.197861,
    -2.198923,
    -0.168787,
    -0.521971,
    -0.564897,
    -1.346382,
    -0.003014,
    1.063782,
    -0.103868,
    -0.417591,
    -0.837010,
    0.482490,
    -0.878011,
    -1.699468,
    -1.933103,
    -1.711334,
    -0.263262,
    0.621843,
    0.953299,
    1.064607,
    0.099518,
    2.073662,
    3.448178,
    2.209006,
    -0.065935,
    -0.595280,
    -1.349474,
    -0.168652,
    0.199103,
    -0.154635,
    -0.132507,
    -0.030888,
    -0.635159,
    -0.102580,
    0.677215,
    -0.510352,
    -1.151230,
    -0.543492,
    -0.489511,
    -1.049606,
    0.589045,
    -0.611349,
    -0.796071,
    0.224508,
    1.794109,
    -0.199833,
    1.630638,
    1.348462,
    1.566410,
    -0.236890,
    2.541656,
    1.032694,
    0.725244,
    0.467798,
    -0.088644,
    0.918657,
    0.961300,
    0.692533,
    -0.047669,
    -0.159481,
    -0.298670,
    2.387448,
    0.564049,
    0.075195,
    0.116274,
    0.556205,
    -1.068587,
    -1.287591,
    0.778232,
    -0.404314,
    -0.027673,
    0.679456,
    1.652030,
    -1.345633,
    0.257539,
    0.708096,
    0.917888,
    1.242431,
    -0.407020,
    1.310814,
    0.256559,
    -0.424236,
    1.133052,
    0.439158,
    -0.561941,
    0.083585,
    -0.312846,
    0.857983,
    0.021293,
    -0.157489,
    0.466138,
    0.441672,
    1.325812,
    0.069486,
    1.291017,
    1.879630,
    -0.802499,
    -0.164980,
    0.889721,
    -0.834055,
    2.153363,
    2.586172,
    1.569830,
    2.473738,
    0.025646,
    0.173681,
    -0.641886,
    0.612449,
    1.586867,
    1.423022,
    1.466333,
    1.820520,
    0.180633,
    -0.225888,
    1.467445,
    1.547418,
    1.459872,
    2.356692,
    1.360093,
    2.057607,
    0.707945,
    1.306334,
    -0.482728,
    -1.744634,
    -0.323029,
    -0.096217,
    -2.112051,
    0.506603,
    0.786447,
    0.283628,
    0.439047,
    -0.413904,
    1.271044,
    -0.236571,
    0.241276,
    0.341883,
    0.931696,
    1.824941,
    1.490194,
    1.366802,
    1.406524,
    0.860899,
    -0.683278,
    -0.155510,
    2.181394,
    0.691777,
    1.241589,
    1.782871,
    1.568713,
    -0.477074,
    0.654472,
    -3.312282,
    0.129097,
    -0.235886,
    -0.652659,
    0.309571,
    1.124001,
    0.311247,
    2.455731,
    1.107492,
    -1.568462,
    -0.708130,
    0.306974,
    2.377691,
    0.840425,
    0.105330,
    0.780232,
    0.783681,
    1.813205,
    -1.592478,
    -1.208085,
    -0.437871,
    2.239716,
    -1.269440,
    2.045948,
    0.070714,
    -1.326515,
    -0.102086,
    -0.280531,
    -1.011716,
    -1.855278,
    0.333542,
    0.176282,
    1.003173,
    -1.890214,
    1.214387,
    0.289710,
    0.723516,
    -0.234825,
    0.729687,
    0.978342,
    1.137916,
    0.572589,
    0.629224,
    1.021051,
    0.620438,
    -1.115280,
    0.506953,
    0.744992,
    -0.186091,
    0.342115,
    -0.543757,
    -0.175338,
    -0.860986,
    -0.794238,
    0.904705,
    0.866983,
    1.268099,
    -0.331435,
    0.127130,
    0.875481,
    0.440725,
    0.577990,
    -0.158868,
    -0.973302,
    -0.277445,
    -1.594737,
    1.846169,
    1.057813,
    0.061652,
    1.894248,
    -0.480160,
    -0.912935,
    -0.499356,
    -0.629144,
    0.051067,
    -0.103538,
    0.596750,
    2.142424,
    0.446706,
    -2.574222,
    0.196682,
    -0.038246,
    0.196373,
    1.869775,
    -0.950356,
    1.268781,
    -0.170204,
    -0.806448,
    -0.152314,
    0.042916,
    -2.175719,
    0.718225,
    2.495138,
    0.456759,
    0.891263,
    2.554889,
    0.992779,
    -0.297786,
    -0.469730,
    0.935084,
    -0.944329,
    1.638550,
    1.734342,
    1.521056,
    -1.143454,
    2.324760,
    2.491386,
    -0.015607,
    -0.499069,
    0.264895,
    -1.317669,
    0.289665,
    -1.286238,
    -0.021772,
    2.405279,
    0.285807,
    0.050628,
    -0.734704,
    0.191165,
    -0.765360,
    -1.600876,
    -0.293277,
    -0.094845,
    -1.392582,
    0.611578,
    1.200247,
    0.101865,
    1.825819,
    1.518629,
    2.006857,
    0.397584,
    0.225367,
    0.326835,
    0.015157,
    -0.034202,
    -1.147978,
    0.786071,
    -0.823744,
    -0.218048,
    -0.813020,
    0.176147,
    0.127348,
    -0.261352,
    -1.296235,
    -1.605188,
    -0.940506,
    -1.379173,
    -1.977219,
    -1.832968,
    -1.932407,
    -0.177339,
    0.053349,
    -0.648678,
    -0.609332,
    1.389571,
    -1.165740,
    0.454487,
    -2.071823,
    1.218642,
    -0.127005,
    0.682517,
    -1.206542,
    -0.312398,
    -0.761960,
    2.874032,
    0.592040,
    1.717159,
    -1.462855,
    0.575373,
    -1.173094,
    -1.879770,
    0.651592,
    0.944758,
    2.603776,
    0.227578,
    -0.288991,
    -1.577019,
    -0.582748,
    -0.582461,
    -2.045866,
    -0.834708,
    -1.946089,
    -1.452164,
    0.043686,
    -1.482996,
    0.021246,
    -1.352431,
    -0.165642,
    -1.732614,
    1.112890,
    -1.264899,
    2.584430,
    2.206147,
    2.653774,
    -2.694053,
    0.526975,
    -0.471442,
    -1.670861,
    -1.297651,
    1.307331,
    -0.876416,
    -1.289395,
    0.782215,
    0.331578,
    -2.669669,
    -1.128644,
    -0.445462,
    -0.839256,
    -0.997670,
    -0.059648,
    -0.723917,
    -0.072205,
    -0.433501,
    0.263385,
    -1.060814,
    -0.166804,
    -0.339593,
    -0.618752,
    0.275834,
    -0.727337,
    0.094572,
    1.333427,
    -0.150500,
    -1.076827,
    0.115895,
    -0.887304,
    0.162979,
    2.102479,
    -0.445342,
    1.770970,
    0.379155,
    -0.127218,
    -1.200706,
    -0.045387,
    -0.622972,
    -1.428881,
    -1.686171,
    -2.354799,
    -1.445042,
    -1.792097,
    -1.328496,
    -1.295145,
    -2.369730,
    -0.069205,
    -0.803972,
    0.169035,
    -2.133849,
    -0.770617,
    0.342432,
    1.424286,
    -0.035918,
    0.653600,
    -0.643186,
    -0.534857,
    0.263139,
    -2.693059,
    0.221087,
    0.071472,
    -2.295573,
    -1.073641,
    -0.537331,
    1.990444,
    0.657470,
    0.304106,
    -0.791783,
    -0.277924,
    -0.060303,
    -1.016412,
    -0.037134,
    0.093597,
    0.604237,
    -1.497779,
    1.993235,
    -2.231051,
    -0.347480,
    0.504078,
    -0.895981,
    -1.091975,
    -1.823201,
    1.804393,
    -1.274069,
    -0.438506,
    0.264215,
    -0.887815,
    0.992365,
    -2.117022,
    1.285772,
    1.795184,
    -0.976051,
    1.035745,
    -0.398337,
    0.248069,
    0.616679,
    0.611308,
    -0.281089,
    -1.225608,
    0.207457,
    -1.371386,
    0.861893,
    -0.029086,
    -1.315103,
    0.619106,
    -1.942156,
    0.772498,
    0.111693,
    -0.885362,
    -0.142333,
    -1.439860,
    -0.048092,
    0.893847,
    -0.607559,
    -0.594620,
    0.483835,
    -2.029038,
    0.193903,
    -2.020512,
    2.512309,
    0.645299,
    1.126191,
    -0.061468,
    2.256770,
    -0.126736,
    -2.193074,
    0.515584,
    1.284080,
    -1.325134,
    -0.625598,
    0.315891,
    -0.797133,
    1.951327,
    -0.002549,
    -0.203933,
    1.014591,
    0.861918,
    -1.236027,
    0.176699,
    0.776170,
    -0.350710,
    -1.333058,
    0.061191,
    0.202386,
    0.120382,
    1.138481,
    -1.745411,
    1.326592,
    0.534246,
    -0.118186,
    0.336651,
    -0.491288,
    -0.496542,
    -0.884084,
    -1.356024,
    -0.428615,
    1.729132,
    1.750608,
    -0.160812,
    0.076350,
    1.621403,
    -1.400328,
    0.223645,
    -0.923804,
    -1.870443,
    0.485573,
    -2.403497,
    -0.243260,
    -0.597426,
    0.401241,
    0.258206,
    0.371437,
    0.991128,
    0.430833,
    -0.166064,
    0.979757,
    0.416122,
    1.332083,
    0.071411,
    0.136647,
    2.267733,
    -0.309374,
    0.947236,
    1.870535,
    0.200546,
    1.475212,
    0.708907,
    -0.146053,
    0.164250,
    1.387709,
    0.650335,
    -0.222272,
    -0.565476,
    0.447108,
    0.762124,
    -0.287812,
    -0.734760,
    0.153922,
    1.818060,
    -2.527283,
    -1.558976,
    -0.410064,
    -0.414815,
    -0.789670,
    1.547770,
    1.561489,
    1.496092,
    -0.674718,
    0.235053,
    -0.011994,
    -0.887480,
    -1.372687,
    -0.137803,
    -1.577796,
    0.239796,
    0.408249,
    0.279640,
    -0.629138,
    1.081324,
    0.310062,
    1.405668,
    0.039927,
    -0.527026,
    -0.633588,
    2.524961,
    2.176715,
    -0.781760,
    -0.893477,
    -0.595876,
    -0.131798,
    0.574634,
    -0.446963,
    -0.733862,
    -0.460743,
    -1.377684,
    -0.551736,
    -1.823131,
    -1.904010,
    -1.284837,
    -2.410378,
    -0.606567,
    -0.661332,
    -1.283559,
    -0.169719,
    -0.526385,
    0.183275,
    -0.258604,
    -0.244847,
    1.994965,
    0.119847,
    0.094292,
    -1.115313,
    2.970721,
    -2.316490,
    1.495822,
    -0.579439,
    0.786056,
    -0.282206,
    -0.694878,
    0.334217,
    -0.811542,
    -1.112002,
    -0.774645,
    0.250091,
    -0.559888,
    -0.630081,
    -0.550425,
    -0.111240,
    -0.285986,
    -1.490200,
    0.691772,
    -1.899916,
    -0.843459,
    0.157121,
    -0.593406,
    -0.075087,
    1.779356,
    -0.032476,
    1.640503,
    0.480909,
    -2.312571,
    0.191582,
    1.778153,
    -0.657045,
    0.883811,
    -1.185231,
    0.797056,
    -0.416629,
    -1.068340,
    -0.589446,
    0.672999,
    -0.713152,
    0.314560,
    1.002349,
    -0.319053,
    -0.960483,
    -0.086025,
    0.609420,
    -2.048012,
    -0.137305,
    0.035363,
    -0.336285,
    -1.577336,
    -1.606071,
    -1.371781,
    -1.333876,
    -1.770099,
    1.433194,
    0.939428,
    0.062073,
    -0.678656,
    -0.830042,
    0.219775,
    0.154830,
    0.173560,
    -0.140096,
    0.905317,
    0.428411,
    -0.858709,
    -0.207551,
    -0.921508,
    -1.359666,
    -0.457608,
    -0.883327,
    -0.306550,
    -0.678328,
    -0.157310,
    0.047236,
    0.275864,
    -1.209856,
    -1.162891,
    -0.668716,
    -1.931618,
    -2.835514,
    1.073953,
    -1.175203,
    0.683499,
    0.473613,
    -0.994744,
    1.142919,
    -0.023103,
    -1.153491,
    -0.116024,
    -0.083907,
    -0.564160,
    -0.098257,
    0.542026,
    0.176741,
    0.581904,
    0.359401,
    1.249622,
    -2.142360,
    -0.293184,
    0.942526,
    -0.515915,
    -0.571367,
    -2.200780,
    -1.737617,
    -1.565666,
    -0.976302,
    -0.134538,
    -1.792667,
    1.218505,
    0.701526,
    0.020618,
    -1.020656,
    0.503860,
    0.844457,
    0.608282,
    -1.815412,
    -0.970081,
    0.097087,
    0.555721,
    -0.166243,
    -0.348281,
    -0.059308,
    0.015318,
    -0.786075,
    -0.399254,
    1.037817,
    0.888650,
    -1.606814,
    0.772768,
    0.254087,
    -0.233690,
    0.233333,
    -1.944920,
    -3.045682,
    -0.922912,
    0.264548,
    -1.125912,
    0.917445,
    0.074768,
    0.744335,
    -0.470425,
    -0.821818,
    -1.121892,
    0.122009,
    0.895165,
    -0.378196,
    -0.254591,
    0.330724,
    0.216393,
    0.380213,
    -0.370569,
    -1.349546,
    1.854815,
    1.290025,
    1.524905,
    1.518150,
    -1.054586,
    1.352433,
    -0.298600,
    -0.370516,
    -2.400239,
    -0.763523,
    -0.069227,
    -1.012682,
    0.898131,
    0.695970,
    0.314401,
    -0.224583,
    0.554998,
    0.392099,
    -0.799245,
    0.865689,
    0.454074,
    -0.341027,
    1.161887,
    1.573652,
    0.308844,
    0.720516,
    -1.007222,
    0.305624,
    1.544747,
    1.893731,
    -0.316230,
    3.379751,
    1.370784,
    -0.115518,
    0.744533,
    0.011369,
    -1.481850,
    -0.053855,
    0.046501,
    0.930274,
    -0.539048,
    -1.650775,
    0.459695,
    -0.267233,
    -0.298142,
    0.726287,
    1.158871,
    0.880039,
    -0.006093,
    0.752178,
    0.420623,
    -0.681142,
    0.111183,
    -1.477905,
    -0.494656,
    1.168682,
    1.342403,
    1.768951,
    1.773463,
    -0.247675,
    1.070868,
    2.133945,
    -0.948689,
    1.269577,
    0.343782,
    -0.379063,
    -1.896969,
    -0.198109,
    2.046449,
    0.458978,
    0.123870,
    1.547000,
    1.139190,
    0.754114,
    0.651998,
    1.416534,
    0.692640,
    0.944347,
    0.702435,
    0.441277,
    0.576788,
    -0.486024,
    -1.285751,
    -0.438240,
    0.490419,
    1.535968,
    1.559994,
    1.362838,
    2.373639,
    1.168516,
    1.117357,
    1.414907,
    -0.559968,
    0.820982,
    0.429765,
    0.259671,
    -1.535735,
    0.890996,
    0.290265,
    0.990891,
    -0.340949,
    0.541814,
    0.953969,
    0.441507,
    0.526654,
    -0.045971,
    0.187208,
    0.676831,
    0.724933,
    -1.539727,
    0.102803,
    -0.069480,
    1.774433,
    1.246794,
    2.978840,
    1.542509,
    1.454371,
    2.413718,
    1.200852,
    1.434981,
    -0.074145,
    -0.572982,
    0.160183,
    -0.699193,
    -0.369793,
    2.184064,
    -1.589907,
    0.014153,
    -0.978913,
    -0.410086,
    0.548008,
    1.689585,
    1.271182,
    1.456067,
    -0.612492,
    0.914032,
    -0.144644,
    -0.572606,
    -2.455273,
    0.516533,
    2.962902,
    1.023528,
    0.853347,
    2.646739,
    0.605939,
    0.797821,
    -0.192038,
    -1.459038,
    0.905663,
    0.372865,
    2.191942,
    -0.694003,
    -0.438776,
    -0.355108,
    -0.626020,
    1.312628,
    1.387628,
    0.434097,
    -0.053291,
    1.298254,
    0.320403,
    1.685749,
    0.289789,
    -0.754778,
    -0.581910,
    -0.925040,
    -0.341547,
    1.487831,
    1.349622,
    1.579706,
    -0.272890,
    0.219741,
    0.106219,
    1.554661,
    1.175633,
    -0.905934,
    -0.726057,
    0.188221,
    0.194890,
    -0.760249,
    -1.234243,
    -0.025051,
    -0.988284,
    0.289269,
    0.164883,
    -1.583866,
    0.400326,
    -1.716421,
    -0.275596,
    -0.850006,
    -0.584455,
    1.022028,
    -0.533432,
    1.291757,
    1.036662,
    0.874267,
    1.818501,
    0.562854,
    0.104337,
    -0.103463,
    -0.785572,
    -1.283275,
    1.207231,
    -1.332651,
    -1.474934,
    0.222177,
    -0.056806,
    -1.021662,
    -0.664589,
    0.069519,
    -0.935329,
    0.984637,
    -0.461336,
    -1.855222,
    -2.747507,
    -0.590564,
    -0.169762,
    -1.101933,
    -1.108887,
    -1.904719,
    0.970685,
    -1.450562,
    -1.338135,
    0.326939,
    -0.231835,
    0.485412,
    0.797752,
    -2.215584,
    0.101744,
    0.645631,
    -0.289532,
    -1.519333,
    -1.725943,
    -0.016917,
    0.232849,
    1.574102,
    -0.929100,
    -0.014087,
    -0.644760,
    -0.519543,
    0.900315,
    0.441489,
    0.688946,
    -2.241767,
    -2.683783,
    -2.439358,
    -1.226850,
    -1.775788,
    -0.789275,
    0.174549,
    -0.999778,
    -0.008783,
    -0.791762,
    -0.212824,
    -1.391013,
    0.131691,
    -0.612132,
    -0.254389,
    -1.186066,
    -1.456326,
    -2.485616,
    -2.589614,
    -0.935202,
    1.249802,
    0.177040,
    1.193545,
    1.107821,
    0.171903,
    0.768479,
    0.192225,
    -1.077397,
    -0.455610,
    -2.494952,
    -1.962773,
    -1.290760,
    -1.515483,
    -2.180890,
    -0.043181,
    -0.680817,
    -1.183059,
    -0.728365,
    0.264896,
    0.180016,
    -2.210399,
    -1.489477,
    -2.589515,
    -1.615444,
    0.791347,
    -0.174133,
    0.934376,
    1.597824,
    -1.832529,
    1.436336,
    -1.031265,
    2.270044,
    -0.451064,
    0.344872,
    -0.004796,
    -0.392665,
    -1.448354,
    -0.952823,
    -1.381313,
    -0.971386,
    -1.658366,
    -1.927939,
    -1.706810,
    -0.837305,
    -1.597710,
    -1.770299,
    -1.016589,
    -2.998337,
    -0.845983,
    -2.132900,
    -1.603601,
    -1.130202,
    -0.178563,
    -0.304131,
    0.308204,
    -0.571992,
    0.335461,
    -0.426282,
    1.516976,
    -0.219148,
    -1.129654,
    -0.719263,
    -1.814029,
    1.154556,
    0.548572,
    -1.134425,
    1.323995,
    -1.556931,
    -1.393220,
    -1.401527,
    -1.409827,
    -3.353002,
    -2.670703,
    -1.711810,
    -2.619094,
    -2.110266,
    -1.165245,
    -0.078005,
    -0.889325,
    -1.457416,
    -1.728619,
    -0.028529,
    1.046834,
    -0.354480,
    -0.815540,
    1.268530,
    -1.181005,
    -1.679510,
    -0.693448,
    -1.579852,
    -0.915195,
    1.038958,
    -0.132199,
    0.323658,
    -0.944440,
    1.052200,
    1.526225,
    -1.062811,
    -2.032372,
    -0.772886,
    -0.897758,
    -1.650422,
    0.526074,
    -0.638149,
    0.243633,
    -0.087528,
    0.327749,
    -0.049530,
    -0.184785,
    -0.057795,
    1.787188,
    -0.752865,
    0.139112,
    0.483823,
    1.698728,
    0.389434,
    -0.730559,
    0.207717,
    0.290571,
    0.674743,
    -0.139170,
    0.833439,
    1.346771,
    -0.376064,
    -0.015134,
    -0.345809,
    1.487846,
    -0.070297,
    -0.377236,
    -0.037616,
    -1.215271,
    0.010708,
    0.897172,
    0.949486,
    0.479431,
    -0.670762,
    -0.832977,
    -0.959633,
    0.571570,
    0.317234,
    -0.526057,
    -1.845577,
    -0.116680,
    -1.236643,
    0.982115,
    1.778720,
    -2.861226,
    0.687035,
    -0.363870,
    0.059607,
    0.302728,
    0.435215,
    0.908535,
    0.194636,
    0.481243,
    0.627377,
    -0.037346,
    -1.187002,
    -0.374242,
    -0.689588,
    -0.110030,
    -1.520887,
    0.565919,
    0.006639,
    -0.461903,
    3.425543,
    -1.352112,
    1.319038,
    0.998512,
    -1.286574,
    -1.671601,
    -0.073519,
    0.378777,
    0.583354,
    1.063184,
    0.141579,
    1.070514,
    -0.458850,
    1.724970,
    -0.266948,
    -0.761486,
    0.552607,
    -1.092183,
    -0.621290,
    -0.494230,
    1.678578,
    1.033951,
    -0.687140,
    -1.470781,
    0.836340,
    0.862062,
    -0.576673,
    0.006982,
    -0.025674,
    -0.635748,
    0.448224,
    0.335194,
    0.074516,
    -0.082455,
    1.339615,
    0.471850,
    -0.748447,
    -1.423356,
    -0.021734,
    -0.300159,
    0.962221,
    -2.243130,
    0.103567,
    -1.033938,
    1.787628,
    -0.987099,
    -0.798299,
    -2.168004,
    -0.552693,
    -0.630659,
    0.058697,
    1.029117,
    -0.486890,
    1.403051,
    -0.480071,
    0.526263,
    -1.080071,
    0.356822,
    1.166253,
    -0.365349,
    -0.583057,
    -0.657051,
    1.376930,
    -1.446040,
    -0.429813,
    0.127119,
    -1.117306,
    -0.044433,
    0.800973,
    0.874528,
    -1.053072,
    1.149676,
    -0.877302,
    0.894133,
    0.588895,
    -0.342572,
    0.904292,
    -1.543438,
    -0.163554,
    -1.506437,
    -1.500441,
    0.916660,
    0.086865,
    -0.176370,
    1.300973,
    -0.115966,
    -1.772572,
    -0.988732,
    -1.797253,
    0.259750,
    -0.085773,
    1.024245,
    0.905043,
    -0.051847,
    -0.244439,
    0.697891,
    0.918744,
    1.697247,
    0.162210,
    -1.071359,
    -1.303680,
    0.475063,
    -0.458903,
    -0.559562,
    -0.629817,
    1.038680,
    1.265504,
    0.330868,
    -0.343540,
    1.064030,
    1.165005,
    -0.940803,
    0.537512,
    -1.661907,
    0.688704,
    -0.000523,
    2.237544,
    -1.420364,
    -0.921272,
    -0.162573,
    -0.041996,
    1.894842,
    0.901848,
    0.505889,
    0.481500,
    -0.308087,
    0.537012,
    0.550915,
    1.284515,
    -0.093057,
    0.770727,
    0.215145,
    -0.531325,
    -1.022203,
    1.817578,
    -0.502742,
    -0.406548,
    0.080264,
    -0.205423,
    1.627710,
    0.962782,
    -0.050044,
    -0.132942,
    0.926839,
    -0.524819,
    -0.154504,
    0.951534,
    1.429648,
    1.814505,
    -1.370970,
    0.384928,
    1.227326,
    -0.105189,
    0.422101,
    -0.748609,
    0.410848,
    -1.110725,
    -0.706261,
    -0.307321,
    0.633796,
    1.804345,
    0.778976,
    1.810919,
    2.009009,
    0.324434,
    0.426323,
    1.263113,
    0.091128,
    2.185397,
    -1.641428,
    -0.885436,
    -0.369526,
    -0.209460,
    0.409226,
    -0.634304,
    0.315409,
    1.254987,
    -0.040823,
    0.708347,
    -0.827500,
    -0.036518,
    -0.462919,
    0.607827,
    -0.284591,
    0.776606,
    -0.708048,
    -0.431911,
    -0.157027,
    -0.476183,
    -1.001490,
    -1.801065,
    -0.698819,
    1.402966,
    0.537137,
    1.569051,
    -1.222337,
    -1.034332,
    -0.925534,
    -0.753754,
    0.584258,
    -1.301728,
    1.731363,
    0.539107,
    1.316976,
    -0.806404,
    -0.122309,
    0.174109,
    0.936077,
    0.979065,
    -1.155024,
    -1.163258,
    -1.957078,
    0.197740,
    -1.077150,
    -1.901558,
    -1.492197,
    -0.972027,
    -0.421282,
    1.084093,
    0.598121,
    0.192930,
    -1.163094,
    -1.481101,
    -0.611992,
    -1.614879,
    -1.253951,
    0.645638,
    -2.171689,
    0.990947,
    0.912337,
    0.311782,
    0.233399,
    1.401313,
    1.071586,
    0.780552,
    -1.390531,
    -0.897575,
    -0.221423,
    -0.919704,
    -0.652960,
    -0.080141,
    -0.118449,
    -1.220368,
    -0.025817,
    -1.405021,
    -0.960198,
    -2.246848,
    -2.714004,
    -1.195064,
    -1.810609,
    -1.054774,
    -2.155895,
    -0.833793,
    -0.538514,
    -0.526515,
    0.054311,
    1.562154,
    -0.847289,
    -0.726743,
    0.476101,
    -2.075339,
    -0.382651,
    0.300819,
    1.171316,
    0.726349,
    -1.424040,
    -1.210183,
    -0.794137,
    -0.119706,
    -0.163916,
    -1.154602,
    -1.385443,
    -0.909672,
    -0.395682,
    1.024856,
    -1.284677,
    -1.949500,
    -1.320378,
    -1.255357,
    -0.558179,
    -1.691027,
    -0.635746,
    0.970264,
    1.047319,
    0.887171,
    -1.247385,
    0.330099,
    -1.325078,
    -1.670741,
    0.630903,
    -1.042863,
    -0.482855,
    -0.905404,
    1.406410,
    -0.600776,
    0.016624,
    -0.285278,
    -0.809444,
    -1.796772,
    1.120202,
    -0.101907,
    -1.373788,
    -1.985445,
    -0.478756,
    -1.394206,
    -1.483474,
    -0.378014,
    -1.544357,
    -1.189130,
    -1.169660,
    0.735789,
    0.804691,
    0.279607,
    -0.106202,
    -0.827252,
    -1.333974,
    -2.321674,
    -0.024034,
    -0.360081,
    0.033049,
    0.896362,
    0.313895,
    -0.959718,
    1.124176,
    0.127774,
    -0.831029,
    2.774894,
    1.009041,
    -1.964918,
    -1.396244,
    -1.454594,
    -0.687178,
    0.057691,
    -0.900834,
    -0.603345,
    -0.626853,
    -1.012945,
    1.111366,
    -0.640622,
    -0.759597,
    -0.484076,
    0.141387,
    -1.137869,
    1.040916,
    1.502830,
    -0.441658,
    0.765862,
    -1.019347,
    1.519462,
    0.866614,
    0.349601,
    -0.149694,
    0.927512,
    2.982560,
    0.517441,
    0.644410,
    1.199612,
    -0.056545,
    -0.155721,
    0.571185,
    0.201737,
    0.921960,
    -1.287284,
    0.756161,
    0.392410,
    1.414816,
    -0.202882,
    2.011813,
    -0.592634,
    0.666847,
    -0.693513,
    0.401099,
    -0.709769,
    0.531566,
    0.714553,
    -0.948139,
    0.323362,
    0.527106,
    1.836868,
    -0.184260,
    0.441659,
    -0.165874,
    1.206511,
    0.516518,
    -0.589341,
    -0.893969,
    0.831981,
    0.607443,
    -0.897593,
    1.666223,
    -0.809050,
    0.729521,
    0.333681,
    3.025254,
    0.771806,
    -0.653318,
    -1.015075,
    0.464836,
    -0.428729,
    -0.875139,
    -1.260171,
    0.625615,
    0.570041,
    1.572308,
    -0.837151,
    -0.471722,
    -1.144713,
    0.738787,
    -0.281021,
    0.780119,
    -1.515303,
    -1.213527,
    0.833202,
    1.072371,
    -0.132411,
    -0.150926,
    1.335666,
    -0.581087,
    0.295297,
    1.354260,
    -0.025387,
    2.322724,
    0.245792,
    -0.725027,
    -1.234760,
    1.329757,
    -0.395848,
    -0.205754,
    1.726171,
    0.616561,
    -0.999935,
    0.868562,
    -1.750548,
    -1.236276,
    0.457299,
    1.046432,
    -0.107537,
    0.061302,
    -1.008003,
    -1.109285,
    -1.280708,
    1.085049,
    -1.430629,
    0.773895,
    -1.293059,
    0.733033,
    0.316658,
    -0.211632,
    1.388357,
    2.095886,
    0.525438,
    1.255448,
    0.150452,
    2.005074,
    -0.344661,
    0.230128,
    0.045382,
    -1.392817,
    0.524190,
    0.156055,
    1.814284,
    -1.927384,
    1.203394,
    -1.758696,
    0.698910,
    -0.737260,
    0.426998,
    0.018669,
    -0.080411,
    -0.347782,
    -1.911789,
    1.944059,
    0.863751,
    2.542783,
    1.252134,
    -0.426954,
    1.018379,
    0.087661,
    -0.591170,
    -2.156710,
    -0.041311,
    -0.698172,
    0.557559,
    -3.610821,
    -0.339281,
    1.893869,
    -1.144007,
    -0.679950,
    -1.478332,
    0.210938,
    -0.417578,
    0.465633,
    -0.197663,
    -1.267502,
    -1.000777,
    -2.614705,
    1.353725,
    -1.709510,
    0.767163,
    -1.404438,
    0.688066,
    0.636337,
    0.933579,
    0.624040,
    -0.296845,
    1.529164,
    -1.508110,
    2.506056,
    0.539754,
    -0.737418,
    -1.163054,
    -0.156959,
    -1.041521,
    -0.705939,
    -0.742775,
    -1.109824,
    -0.799217,
    0.467972,
    0.189157,
    -0.072250,
    0.177974,
    1.040661,
    -0.416568,
    -0.527736,
    -0.772903,
    -1.487263,
    -0.255704,
    0.647836,
    -1.510577,
    2.398821,
    -0.604234,
    0.187981,
    1.588152,
    -0.367094,
    -0.208688,
    0.365059,
    0.830382,
    1.207425,
    -1.925126,
    -2.144230,
    -0.327162,
    -0.446377,
    -0.395906,
    -0.001245,
    -0.081145,
    -0.754552,
    -0.132145,
    -0.009475,
    0.859500,
    -1.095358,
    0.221079,
    -1.760178,
    0.570871,
    -0.707613,
    1.198159,
    1.363039,
    0.885869,
    -1.123155,
    -0.111343,
    -0.415990,
    -0.780035,
    0.379006,
    -1.030002,
    -0.053390,
    0.075650,
    1.521867,
    -0.177358,
    0.528028,
    0.099742,
    -1.652219,
    -1.175150,
    -1.287707,
    -1.923779,
    0.923706,
    0.478174,
    1.456033,
    1.830613,
    2.206770,
    -0.124821,
    0.227944,
    0.131935,
    1.286355,
    1.139125,
    0.310140,
    0.620396,
    -0.605175,
    -0.679886,
    2.277905,
    0.516755,
    -1.040302,
    0.951918,
    -1.607209,
    1.984182,
    -1.033313,
    -2.183535,
    -1.047637,
    2.185578,
    -0.500431,
    -1.574970,
    -0.593915,
    -1.098691,
    -0.009256,
    1.707105,
    -0.064898,
    1.236990,
    -0.119220,
    1.099561,
    2.042868,
    2.115828,
    0.259137,
    2.186383,
    -1.597548,
    0.390043,
    -1.193083,
    -0.671077,
    -0.690319,
    -2.702996,
    -0.372821,
    -1.670970,
    0.796861,
    0.297874,
    -0.009511,
    0.633158,
    -1.823179,
    -1.610949,
    -0.479595,
    -1.453568,
    -0.944830,
    1.016778,
    0.029325,
    -0.004646,
    0.354277,
    1.891338,
    -0.482345,
    2.014776,
    -0.423272,
    1.258512,
    0.711228,
    0.924574,
    0.432360,
    1.664293,
    -0.450689,
    -0.302442,
    1.084332,
    -0.858467,
    1.097201,
    0.732101,
    0.699492,
    -0.456496,
    -2.218265,
    0.141247,
    -0.015790,
    -0.955436,
    0.100928,
    -0.783654,
    -1.799503,
    0.226283,
    -2.189953,
    -0.917271,
    -0.735103,
    -1.510379,
    -1.335178,
    1.129538,
    0.379689,
    0.459563,
    -1.368685,
    -0.972740,
    -0.365258,
    -1.314347,
    -1.909519,
    -0.441010,
    -1.542317,
    0.124153,
    -0.740981,
    0.058917,
    1.203978,
    -0.111250,
    -0.324321,
    -0.634914,
    0.842743,
    -1.295565,
    -0.436941,
    -0.378721,
    -1.196214,
    1.423943,
    -0.591649,
    1.267393,
    -0.587325,
    -0.362430,
    -0.178339,
    -0.889873,
    -2.227331,
    -1.312610,
    -0.738707,
    -1.547262,
    0.954133,
    -0.161810,
    0.303479,
    -1.184521,
    -0.265837,
    -1.048322,
    2.087950,
    1.406772,
    -1.345028,
    1.602528,
    -0.203650,
    0.827501,
    -0.664596,
    -1.315627,
    1.116808,
    0.138197,
    -0.102305,
    0.124541,
    0.001314,
    0.650659,
    -0.946640,
    -1.199574,
    1.548202,
    -1.317763,
    0.029546,
    -1.845240,
    -0.308776,
    -0.907221,
    -0.092826,
    1.243225,
    -0.610078,
    0.238674,
    0.151046,
    1.633929,
    -0.270932,
    0.254329,
    0.793894,
    -1.229939,
    0.519822,
    1.205229,
    0.014339,
    -0.589530,
    0.618453,
    -0.450733,
    0.505248,
    -1.610520,
    -0.164578,
    0.232443,
    1.290245,
    0.328194,
    1.167370,
    0.148583,
    -1.664297,
    -0.258439,
    -0.118947,
    0.604130,
    0.473756,
    -0.445308,
    0.378909,
    -0.104269,
    0.813051,
    -0.455324,
    -2.338530,
    0.419822,
    1.154893,
    0.616916,
    -1.713115,
    -0.106293,
    0.431330,
    -0.345048,
    0.817047,
    0.038762,
    2.467821,
    0.266982,
    0.555028,
    -0.169564,
    -0.431661,
    -0.455754,
    -0.644639,
    -1.201117,
    0.796201,
    -0.914802,
    1.800810,
    -0.362023,
    -0.575897,
    -0.366862,
    -1.579784,
    0.630829,
    0.200257,
    0.508048,
    0.213936,
    -0.862062,
    -2.081088,
    -0.292611,
    0.450088,
    -1.905699,
    -0.798825,
    1.003910,
    0.971188,
    0.129361,
    -0.353582,
    0.884721,
    -0.756396,
    0.738987,
    -0.457016,
    0.606274,
    -1.662678,
    -1.249770,
    0.224825,
    1.943432,
    -1.824028,
    -1.837110,
    -0.800917,
    -0.364224,
    -0.381328,
    0.052298,
    -1.006094,
    1.047382,
    -0.538884,
    2.130272,
    0.531879,
    1.119603,
    -1.160061,
    1.271964,
    1.261276,
    1.268731,
    0.607105,
    0.113934,
    -0.366829,
    -0.734688,
    0.797317,
    -0.565462,
    -1.167093,
    0.438358,
    0.003063,
    0.300662,
    0.284568,
    -1.569610,
    0.093047,
    0.806557,
    -0.503270,
    0.771233,
    -0.211870,
    -0.997571,
    -0.392064,
    0.445612,
    -1.058193,
    0.710349,
    -0.438492,
    -0.732562,
    -2.049262,
    -2.228896,
    0.118854,
    -0.363184,
    -0.102985,
    0.215562,
    0.165137,
    0.702503,
    0.019182,
    0.063023,
    2.297390,
    0.867494,
    -0.739590,
    0.756914,
    0.651959,
    0.081908,
    1.340691,
    -1.061339,
    -0.077918,
    0.520762,
    1.270157,
    0.343550,
    0.925688,
    0.562385,
    -1.078437,
    1.761485,
    1.030524,
    0.984435,
    -0.257109,
    0.575058,
    -0.349289,
    -0.782008,
    0.877594,
    0.423225,
    1.601640,
    -0.804075,
    -1.032214,
    -1.095546,
    0.630437,
    -0.778923,
    1.095375,
    -0.851208,
    -0.152896,
    0.247863,
    -1.268576,
    0.243621,
    1.517934,
    -0.398680,
    0.262869,
    -1.152457,
    -0.736486,
    -0.141521,
    -0.619796,
    -1.427907,
    -0.904724,
    0.196036,
    -0.926317,
    -1.412048,
    -1.521633,
    -0.515251,
    -1.209625,
    1.649030,
    -0.867531,
    -0.657882,
    0.366788,
    0.797020,
    0.911774,
    -1.061835,
    -0.847429,
    -1.036672,
    -0.489289,
    2.054106,
    0.195521,
    0.426673,
    -1.141022,
    -0.735778,
    -1.478042,
    -0.443663,
    -0.710998,
    -1.015110,
    0.832921,
    -0.120314,
    -1.205420,
    0.716288,
    1.161386,
    1.777111,
    0.341272,
    0.406058,
    -0.733479,
    1.211568,
    -0.799089,
    -0.371798,
    0.987738,
    0.774106,
    -0.426096,
    -0.477445,
    1.619089,
    -1.812772,
    1.812964,
    0.640257,
    -0.883653,
    0.640418,
    0.584954,
    0.053948,
    1.134510,
    0.416060,
    -1.866798,
    -1.295113,
    1.509756,
    0.672429,
    2.046484,
    -0.632364,
    0.924861,
    0.194068,
    0.917560,
    0.242838,
    1.582533,
    0.828434,
    1.383106,
    0.360196,
    -1.125156,
    1.438445,
    -0.163667,
    -2.424319,
    -0.308567,
    1.304206,
    -0.699110,
    -0.879822,
    -0.669766,
    -1.028485,
    -0.213506,
    -0.762758,
    0.437406,
    -1.646968,
    -0.394844,
    1.054077,
    0.627981,
    -2.857199,
    -1.622703,
    -0.525985,
    -1.696705,
    0.141343,
    -1.065225,
    0.700989,
    2.132057,
    2.394579,
    -0.567689,
    0.151741,
    0.276872,
    2.066463,
    0.115934,
    0.951756,
    -0.536599,
    0.832266,
    0.058737,
    0.367607,
    1.855740,
    0.477271,
    0.531478,
    -0.134853,
    -0.339482,
    -1.801483,
    0.864411,
    -1.136770,
    -1.126402,
    0.915728,
    1.151475,
    -2.136225,
    1.431683,
    -0.378783,
    -0.269851,
    -1.447316,
    -0.208150,
    1.809049,
    0.245629,
    -0.426436,
    -0.638891,
    -0.301910,
    0.874238,
    -2.015204,
    1.543774,
    0.285633,
    -0.049156,
    0.946065,
    -0.976537,
    1.263479,
    1.004735,
    0.150153,
    0.730550,
    0.013052,
    0.761130,
    -0.835270,
    0.767361,
    -0.272553,
    -0.049487,
    0.654948,
    -0.034302,
    -0.160620,
    -1.237011,
    -1.412412,
    0.978668,
    -0.615804,
    0.760547,
    1.113507,
    1.025269,
    -0.563792,
    1.415323,
    0.578615,
    0.566998,
    0.296806,
    0.473691,
    1.670352,
    0.680422,
    -0.390985,
    0.094675,
    -1.220681,
    0.170545,
    -0.584183,
    0.171019,
    -1.353353,
    0.520191,
    -1.679917,
    -0.154113,
    1.705926,
    -0.021352,
    1.048366,
    -1.399773,
    -0.001764,
    -1.280270,
    -1.528976,
    -0.258508,
    0.509273,
    -0.308236,
    -0.002307,
    -1.689096,
    -0.147963,
    0.232000,
    0.345274,
    1.805381,
    0.129654,
    2.529484,
    -0.320162,
    0.936967,
    0.416512,
    0.575895,
    -0.009105,
    -0.067654,
    2.442274,
    0.759229,
    0.646475,
    1.002988,
    -0.096721,
    -0.717161,
    -1.171395,
    0.576699,
    0.469787,
    -0.259455,
    0.427043,
    -1.000238,
    -0.684698,
    -1.349403,
    -0.291015,
    -0.265833,
    1.083561,
    -1.949858,
    0.029750,
    -0.097667,
    0.154768,
    -0.022214,
    -1.209358,
    0.411389,
    -0.947344,
    -0.793488,
    -0.668315,
    0.124642,
    -0.656883,
    -0.088555,
    0.358523,
    0.583116,
    1.495114,
    1.070794,
    -1.233547,
    -1.755334,
    1.491887,
    1.292067,
    0.421897,
    0.615487,
    -0.365634,
    -1.599368,
    -0.333570,
    -1.024719,
    -0.269766,
    -0.625661,
    -0.434247,
    -1.198058,
    -0.619464,
    0.764257,
    1.516757,
    0.872804,
    0.302744,
    1.755606,
    -0.344873,
    0.638906,
    0.769461,
    -0.798765,
    -0.364870,
    -0.672175,
    0.763918,
    -0.444538,
    -0.066212,
    -0.879679,
    -1.705580,
    0.787794,
    0.068261,
    -2.022316,
    0.745616,
    -1.009552,
    0.792162,
    -0.141158,
    -0.106557,
    0.768563,
    -0.740357,
    0.962451,
    -1.458710,
    0.398377,
    0.326987,
    0.764580,
    -1.711870,
    -0.016396,
    -1.151574,
    -1.241053,
    2.082921,
    0.504283,
    -0.041131,
    -0.555751,
    -1.798632,
    1.433507,
    0.224477,
    0.324641,
    -0.223039,
    -0.518127,
    -0.683413,
    1.152295,
    -0.826602,
    -0.237251,
    0.475978,
    -1.582371,
    0.269943,
    -1.107776,
    0.120649,
    0.088473,
    -0.027489,
    -0.993547,
    1.066255,
    -0.132319,
    0.103515,
    -1.755032,
    -0.969082,
    2.348649,
    -0.420944,
    -0.697055,
    0.658637,
    -0.338889,
    -1.243153,
    0.616237,
    -0.521743,
    -1.199772,
    -0.486956,
    3.200572,
    -0.780939,
    -0.229997,
    1.141577,
    0.270726,
    1.186091,
    0.677928,
    -1.387627,
    1.149391,
    1.075133,
    -1.330664,
    -0.448498,
    -0.532862,
    0.860450,
    -0.230289,
    -0.919052,
    -0.640178,
    -0.881007,
    0.075704,
    0.311453,
    -0.415833,
    2.250425,
    -1.137995,
    -0.925806,
    0.733802,
    -0.133140,
    0.639338,
    0.012420,
    -1.749457,
    -0.967576,
    -0.706585,
    -2.475680,
    -1.161603,
    -0.200449,
    -1.021218,
    1.088693,
    0.915768,
    -0.034917,
    -0.053109,
    -0.016481,
    -0.903099,
    -0.851047,
    -0.937257,
    -0.057636,
    -0.306983,
    3.126475,
    1.995476,
    0.990680,
    1.551297,
    0.631649,
    -1.405566,
    0.591700,
    3.304592,
    0.093961,
    0.956472,
    0.254437,
    0.713452,
    1.360489,
    -1.008589,
    -1.290105,
    -0.591352,
    -1.017292,
    -1.784885,
    1.201867,
    -0.097469,
    0.425855,
    -0.768017,
    -1.943743,
    0.144883,
    1.109841,
    -0.256371,
    0.107143,
    0.403019,
    0.492599,
    -0.664030,
    0.773186,
    -0.355232,
    0.612652,
    -0.610486,
    0.534108,
    -0.444597,
    0.067374,
    -0.556344,
    2.193622,
    -0.600732,
    1.065136,
    -1.361305,
    -0.437552,
    -2.434091,
    -2.694665,
    -2.488860,
    -3.655144,
    -2.010015,
    -1.265819,
    -0.801102,
    -0.863576,
    -1.298834,
    -0.836068,
    -0.238773,
    1.138421,
    -0.030770,
    0.836000,
    -0.610541,
    0.673439,
    -0.381153,
    -0.540972,
    0.388322,
    -0.243646,
    -0.520591,
    -0.176571,
    0.301236,
    0.238126,
    2.630083,
    -1.123541,
    -0.970459,
    -1.377726,
    -1.918566,
    -2.795770,
    -2.815244,
    -2.835486,
    -4.377551,
    -2.666677,
    -2.091816,
    -0.694915,
    -0.707985,
    1.791638,
    -1.562285,
    1.232023,
    -1.181404,
    1.543042,
    0.390439,
    0.090962,
    -1.837003,
    -0.838320,
    0.821550,
    1.979922,
    1.926384,
    -0.797183,
    -0.264557,
    1.062321,
    1.489654,
    -0.338764,
    2.284131,
    -1.843842,
    0.724447,
    -0.359706,
    0.355406,
    -1.812844,
    -1.729103,
    -3.136331,
    -2.813966,
    1.768676,
    0.374242,
    1.493363,
    0.496042,
    1.069187,
    -0.151608,
    0.327361,
    0.328123,
    -0.715765,
    -1.143786,
    0.753748,
    -1.860016,
    0.017123,
    0.131660,
    0.262169,
    1.816478,
    0.412188,
    1.877226,
    0.127815,
    0.213178,
    -0.921282,
    -0.894855,
    -0.938552,
    0.110289,
    0.279190,
    -0.357441,
    0.494217,
    0.040420,
    1.620806,
    0.150789,
    0.104903,
    -0.506959,
    0.635292,
    -1.122438,
    0.254503,
    0.722866,
    -2.057572,
    0.432764,
    0.079902,
    -0.756960,
    1.273843,
    1.298182,
    1.005129,
    1.958495,
    0.965660,
    2.331619,
    1.549095,
    0.355349,
    -0.769949,
    1.020164,
    0.597626,
    -1.628005,
    0.579073,
    -0.181982,
    0.565512,
    -0.528556,
    -0.428870,
    -0.529166,
    1.687539,
    0.822643,
    -1.313043,
    0.655033,
    0.461186,
    0.269194,
    0.295682,
    -1.284073,
    -1.547361,
    0.481746,
    0.515270,
    -0.744358,
    1.734694,
    0.083990,
    -0.288620,
    -0.506188,
    0.437803,
    -1.206391,
    -0.020160,
    0.693400,
    1.107619,
    -0.717466,
    -0.500726,
    0.829360,
    -0.853603,
    1.413605,
    -0.082474,
    1.137712,
    -1.440818,
    -0.797362,
    0.673385,
    -0.584020,
    -0.843645,
    -0.335122,
    -1.454840,
    -0.195449,
    0.593454,
    1.496794,
    1.090387,
    0.105367,
    0.026305,
    0.287920,
    0.576173,
    -0.608229,
    0.583645,
    1.325819,
    -1.259128,
    -0.424089,
    -0.298250,
    -0.177073,
    0.560732,
    -0.108348,
    0.151157,
    -0.531592,
    -0.999859,
    0.263813,
    1.209762,
    1.183272,
    -0.501779,
    -1.125103,
    0.487850,
    0.635116,
    -0.322204,
    -0.909474,
    -0.857617,
    -1.596784,
    0.881111,
    -1.662976,
    -1.424423,
    -1.194997,
    -0.050177,
    -0.589756,
    0.825566,
    1.588207,
    1.180841,
    1.445555,
    0.678810,
    0.890377,
    -0.059777,
    1.231229,
    -0.169149,
    1.178098,
    0.046980,
    -0.754304,
    0.039743,
    -1.638079,
    -1.368841,
    0.632664,
    -1.618284,
    -0.168342,
    -1.260552,
    -0.716670,
    -0.837761,
    -0.556524,
    0.465557,
    0.178803,
    0.250163,
    -0.970924,
    -0.195974,
    1.538390,
    -1.381737,
    -1.522322,
    -1.822673,
    1.139287,
    1.077590,
    -0.379029,
    -0.309349,
    0.699498,
    0.210157,
    -0.785360,
    -0.094038,
    -0.874462,
    0.672592,
    0.262637,
    1.347731,
    0.191860,
    -0.408990,
    1.801450,
    -0.360850,
    1.408253,
    -1.578509,
    0.287143,
    -0.667799,
    -0.173169,
    0.690536,
    1.644282,
    -0.919721,
    -0.403385,
    -0.724519,
    1.131065,
    -1.537066,
    0.749031,
    0.647733,
    1.465330,
    -0.103676,
    0.000989,
    0.990391,
    0.131099,
    0.211755,
    -0.363297,
    -0.857709,
    1.615180,
    -0.324255,
    -0.897203,
    -0.526639,
    1.948124,
    0.148800,
    -0.843405,
    -1.249830,
    -1.468437,
    -0.122083,
    0.673315,
    -1.666514,
    -0.970219,
    2.267526,
    -1.343819,
    0.540294,
    0.296323,
    -1.549509,
    -1.279723,
    -0.575837,
    1.766317,
    0.334339,
    0.199854,
    -0.017505,
    1.133065,
    -0.057556,
    0.819933,
    -0.468436,
    1.516272,
    0.934642,
    0.758577,
    -0.106847,
    -0.965939,
    -0.828873,
    0.480005,
    0.239542,
    -0.188110,
    1.403092,
    1.116758,
    0.958911,
    -1.022952,
    -0.224885,
    0.013173,
    1.305078,
    0.166851,
    -0.886946,
    0.079928,
    -2.499550,
    -0.283384,
    -2.112537,
    0.037718,
    -0.949542,
    -0.306172,
    -0.249718,
    0.510206,
    0.868722,
    1.306280,
    -0.153993,
    0.988281,
    1.181139,
    -0.796115,
    -0.318280,
    1.007370,
    1.096766,
    0.392640,
    -0.597274,
    -2.322713,
    0.278333,
    -0.411053,
    0.245611,
    1.224985,
    -1.351982,
    -0.195942,
    -1.552366,
    -0.562830,
    0.339372,
    1.445595,
    -0.456377,
    3.370032,
    -0.724555,
    -1.433030,
    -0.119610,
    0.727260,
    -0.273464,
    1.049154,
    -0.898684,
    -0.916607,
    -0.061449,
    -0.269606,
    1.150462,
    -0.224093,
    1.782542,
    1.373388,
    -0.908965,
    -0.375803,
    0.229868,
    0.462128,
    -0.807042,
    0.507183,
    0.618727,
    0.950107,
    0.035897,
    -0.586763,
    -0.481154,
    -2.106444,
    -1.645654,
    1.337594,
    -0.108611,
    0.767442,
    -1.448605,
    -0.085905,
    -0.507836,
    0.052622,
    -1.970352,
    0.285907,
    0.276590,
    -0.600175,
    -0.060415,
    -0.322561,
    1.218725,
    0.079306,
    -0.462214,
    0.691861,
    0.349198,
    1.171724,
    1.171385,
    1.140153,
    -0.267467,
    -0.528549,
    1.090976,
    -1.161892,
    0.447754,
    0.103590,
    -0.603701,
    -0.204674,
    0.072152,
    -1.693100,
    -1.586691,
    0.433818,
    0.100538,
    -0.188869,
    -2.560516,
    0.429457,
    0.822920,
    1.334210,
    -0.110775,
    -1.349719,
    -0.129837,
    -1.153183,
    -1.716101,
    0.096407,
    -1.450593,
    -0.126246,
    -1.575086,
    -0.091028,
    -0.849289,
    -0.349326,
    -0.795317,
    -0.698082,
    -2.084171,
    -0.452718,
    -0.295964,
    0.500604,
    -0.042684,
    -1.095108,
    0.084751,
    -0.226011,
    -1.089343,
    1.093680,
    0.304876,
    0.056191,
    0.629775,
    -0.103914,
    0.322220,
    1.713261,
    -0.192605,
    0.657332,
    -0.644863,
    -0.294142,
    0.806353,
    -0.445959,
    1.472912,
    -1.214311,
    0.215357,
    -0.892056,
    0.184011,
    0.517289,
    -0.059177,
    -1.072627,
    0.123168,
    -0.650245,
    2.001904,
    0.176087,
    -0.616314,
    1.410779,
    0.751734,
    0.369799,
    -0.802299,
    0.130078,
    0.526582,
    -0.363751,
    -0.512314,
    -0.216164,
    -1.429371,
    0.416189,
    1.136014,
    -0.138941,
    -0.016699,
    -0.177856,
    0.015256,
    1.405430,
    -0.518697,
    -0.734401,
    0.058268,
    -1.130360,
    -1.666147,
    -0.766338,
    0.396591,
    -0.841995,
    0.740830,
    -1.305728,
    1.600523,
    -0.373019,
    0.347598,
    -0.317736,
    -0.047188,
    -0.533759,
    1.081973,
    0.581760,
    -1.269193,
    -0.071022,
    -1.055735,
    1.262642,
    -2.510609,
    -0.371908,
    1.144183,
    1.508164,
    -0.996575,
    -0.216903,
    -1.221108,
    -0.886794,
    0.110325,
    -0.677389,
    -1.638263,
    -0.116929,
    -1.173460,
    0.196855,
    -0.684016,
    0.357249,
    -0.187301,
    0.173435,
    1.142916,
    1.160247,
    1.795000,
    1.210122,
    1.196724,
    -0.306837,
    -0.479059,
    -0.569914,
    -1.361071,
    -1.240610,
    0.441301,
    -0.117873,
    -0.124424,
    -0.678260,
    2.135093,
    1.068676,
    -0.561025,
    -0.364716,
    -0.390938,
    0.294504,
    -0.784874,
    0.784365,
    -0.470909,
    -0.173362,
    0.065872,
    0.877035,
    0.406502,
    1.290396,
    0.190627,
    1.926826,
    0.453073,
    -1.934311,
    1.139624,
    -0.232265,
    1.757497,
    -0.356676,
    -0.966028,
    0.164841,
    -1.189950,
    -0.216264,
    1.453243,
    1.363014,
    0.908221,
    0.034951,
    1.374638,
    -1.192448,
    1.068539,
    -0.493626,
    -0.229378,
    -0.804101,
    -0.487644,
    0.636266,
    -0.839337,
    -0.009768,
    -0.080752,
    0.494474,
    0.828860,
    1.231082,
    1.359797,
    0.393067,
    1.266783,
    -0.406893,
    -0.970630,
    0.229970,
    -0.968328,
    0.976274,
    1.598628,
    -0.554316,
    -0.834175,
    -0.339133,
    -1.252493,
    -0.683879,
    -1.304662,
    0.151954,
    0.170702,
    -0.391524,
    2.013384,
    -1.211484,
    1.167011,
    -1.128801,
    -0.191105,
    -0.658769,
    -0.569796,
    -1.383601,
    1.771373,
    0.679058,
    1.284377,
    1.817104,
    1.183770,
    -0.324225,
    2.243643,
    -0.780978,
    -1.229543,
    -0.267094,
    -0.529507,
    0.612384,
    -0.563219,
    -2.140893,
    0.523430,
    -0.185553,
    0.874680,
    -0.146466,
    -0.294804,
    -0.848043,
    -1.734140,
    1.009991,
    -0.725331,
    0.791817,
    -0.947770,
    0.465453,
    -1.264239,
    -2.070746,
    -1.960377,
    -0.408191,
    2.315795,
    -1.001981,
    2.747540,
    1.053297,
    1.940889,
    -0.880756,
    0.191276,
    1.970899,
    0.352973,
    0.716492,
    0.266928,
    0.239291,
    -1.511561,
    0.153459,
    1.476809,
    0.370643,
    0.574420,
    1.401646,
    0.352061,
    0.634367,
    -0.169054,
    1.147810,
    -2.208643,
    0.022223,
    0.592475,
    -2.167397,
    -1.082498,
    -1.225890,
    1.530714,
    0.289766,
    1.940327,
    1.055860,
    2.469862,
    0.535017,
    0.945507,
    1.123641,
    0.653040,
    -0.729342,
    1.965180,
    -1.218280,
    0.028599,
    -0.634215,
    0.515854,
    0.240643,
    1.328434,
    -0.658480,
    0.726510,
    -0.014442,
    -0.313498,
    -0.886980,
    -1.833989,
    -0.565193,
    -1.381599,
    -2.628570,
    0.210282,
    0.591350,
    2.027281,
    -0.006193,
    0.351528,
    0.616160,
    -0.529109,
    -0.945626,
    0.847312,
    -0.344641,
    0.469598,
    1.246054,
    -1.362177,
    0.182817,
    0.015689,
    -1.050192,
    2.421005,
    0.412619,
    -0.654390,
    0.699127,
    1.381359,
    -1.751036,
    0.912687,
    -1.525316,
    -1.321070,
    -3.334592,
    -0.070365,
    -1.600060,
    -1.373199,
    0.033792,
    -1.021388,
    0.089196,
    1.256795,
    -0.885987,
    -0.318107,
    -0.037061,
    0.985732,
    -1.324703,
    -1.133377,
    1.333963,
    -0.169122,
    -0.611339,
    -0.673036,
    0.352546,
    0.187962,
    1.036242,
    1.322545,
    -0.609888,
    -0.107540,
    1.065913,
    0.002547,
    -1.357113,
    -1.454796,
    -2.063836,
    -1.088123,
    -0.793308,
    -1.320706,
    0.703925,
    0.027665,
    0.489103,
    0.886538,
    -0.389070,
    0.657425,
    1.546797,
    -0.912527,
    -0.511371,
    0.529242,
    -0.391068,
    0.563167,
    -0.793804,
    0.207413,
    0.484759,
    -1.613634,
    1.998028,
    1.467665,
    0.092538,
    0.816977,
    -0.336046,
    -0.433347,
    -4.354242,
    -1.998889,
    -2.010697,
    -0.447777,
    -1.981633,
    0.688063,
    1.148769,
    0.849607,
    -1.311468,
    0.010341,
    -1.036968,
    0.310471,
    1.136854,
    -0.220089,
    -0.320934,
    1.557699,
    0.065692,
    2.202874,
    0.051567,
    0.124384,
    -0.273797,
    -0.900228,
    0.724015,
    0.319239,
    0.275098,
    1.109032,
    -0.539864,
    -3.131638,
    -2.631516,
    -0.614638,
    -0.733963,
    -0.261803,
    -1.003271,
    0.168584,
    -0.462060,
    -0.012548,
    1.205701,
    0.661255,
    0.912976,
    -0.562416,
    -1.715161,
    -1.094186,
    0.106427,
    1.054335,
    -1.001295,
    -0.579215,
    0.093429,
    -0.483399,
    0.263723,
    0.443660,
    -1.204482,
    1.347566,
    -0.607438,
    0.515209,
    0.207712,
    -0.084700,
    -2.169827,
    -0.683978,
    -0.586574,
    -0.916051,
    -0.832959,
    -1.126590,
    -0.347264,
    -0.176084,
    -1.248371,
    -0.394171,
    -0.567592,
    0.060948,
    -1.159939,
    1.187501,
    0.286318,
    -0.238404,
    -0.177767,
    -0.620934,
    1.099746,
    -1.738813,
    -0.211494,
    -0.515578,
    -0.603575,
    0.635016,
    -0.804033,
    0.086716,
    1.073638,
    -0.721663,
    -0.859594,
    0.008407,
    -0.964113,
    -0.652162,
    0.819191,
    -0.156791,
    0.776040,
    -0.061799,
    0.013209,
    -0.622983,
    -0.160896,
    0.847005,
    0.120860,
    2.121958,
    -0.657634,
    0.769262,
    -1.023327,
    0.662254,
    0.777481,
    -0.753579,
    -1.192519,
    0.799344,
    0.171179,
    -1.444824,
    0.006634,
    1.855323,
    -0.530395,
    -0.246685,
    0.791542,
    -0.338968,
    -0.142344,
    -1.538377,
    -0.615870,
    -0.268163,
    -0.113674,
    -0.284160,
    -0.727640,
    0.576524,
    1.159012,
    -0.926629,
    -0.208303,
    1.234246,
    -0.431485,
    -0.176504,
    1.111876,
    0.037395,
    0.234356,
    0.491777,
    0.119271,
    -2.128584,
    1.338768,
    -0.625129,
    0.147734,
    -0.640970,
    -0.337641,
    0.446715,
    1.286863,
    -0.270491,
    -0.085646,
    -0.783230,
    -1.396592,
    -0.322296,
    -1.007855,
    -2.096902,
    0.800102,
    -1.408777,
    -1.593989,
    0.644569,
    0.935219,
    -1.104317,
    -0.553483,
    0.618069,
    1.702675,
    -1.007586,
    -1.394111,
    -0.318036,
    0.518243,
    -0.913842,
    0.287159,
    0.139816,
    -0.151469,
    -0.279681,
    1.044054,
    -0.324111,
    -0.205319,
    -0.472200,
    1.341654,
    0.247111,
    0.337813,
    -0.708639,
    -0.181712,
    0.446189,
    -0.265466,
    -0.688279,
    -0.189135,
    -0.517895,
    -0.959212,
    0.555112,
    0.110954,
    -1.420620,
    0.803861,
    -0.678793,
    1.030599,
    -1.009539,
    0.718731,
    -0.234348,
    0.629116,
    -0.206995,
    -0.423451,
    -0.157911,
    0.078379,
    0.239320,
    0.962793,
    0.000660,
    0.294107,
    -0.385339,
    1.721771,
    0.660558,
    -0.351397,
    -0.475027,
    -1.333952,
    0.291979,
    0.190869,
    -0.209895,
    -0.719777,
    2.595411,
    -0.615382,
    -0.132367,
    0.437623,
    1.185505,
    -1.145301,
    -0.412773,
    0.739285,
    0.020537,
    -1.662634,
    0.947079,
    -1.190085,
    0.733235,
    -0.396742,
    0.677690,
    -2.026272,
    0.165171,
    -0.174143,
    -1.062102,
    -0.594389,
    -0.844243,
    0.150821,
    0.726634,
    -0.571247,
    1.808639,
    0.435328,
    -1.195958,
    1.822105,
    -0.502945,
    -1.614122,
    0.546097,
    1.564207,
    0.405276,
    -0.742935,
    0.471846,
    -0.075344,
    2.418410,
    -0.392548,
    0.691591,
    -0.746901,
    0.322789,
    -0.065985,
    -0.692012,
    0.020823,
    -2.942594,
    1.399467,
    0.537803,
    1.073224,
    -0.432255,
    1.013624,
    0.273906,
    -0.334717,
    -0.785561,
    0.198282,
    -0.006383,
    0.003563,
    -0.508468,
    -0.153275,
    -1.229711,
    1.733088,
    -0.336402,
    1.197513,
    0.776929,
    1.549978,
    -0.584495,
    0.051751,
    -0.133036,
    0.177996,
    -0.386792,
    -0.003538,
    -0.366016,
    0.782437,
    2.438246,
    1.402848,
    -1.345741,
    -1.215947,
    0.006744,
    -1.419047,
    0.175743,
    -0.148738,
    -0.389503,
    -0.505619,
    -3.146039,
    1.699559,
    -0.148805,
    1.980486,
    1.463682,
    -0.815583,
    1.228156,
    -0.919516,
    -0.890808,
    0.475098,
    -0.756738,
    -0.183463,
    0.259638,
    -0.156820,
    -0.207658,
    0.414737,
    2.605389,
    -0.499425,
    0.228292,
    0.716584,
    0.076412,
    0.397421,
    -0.070401,
    -0.665527,
    1.638713,
    0.113553,
    0.378283,
    -0.431924,
    0.790160,
    0.086884,
    0.679901,
    0.431288,
    0.501866,
    -0.958521,
    0.719420,
    -0.909175,
    -1.136395,
    -1.217353,
    0.099295,
    0.662190,
    1.071765,
    1.275837,
    1.156465,
    0.590599,
    -1.679802,
    -0.643547,
    0.160038,
    0.006031,
    -0.618017,
    1.057384,
    -2.184837,
    -0.136846,
    -2.334306,
    0.992697,
    -1.477571,
    -0.321454,
    -0.008391,
    -0.436978,
    0.414236,
    -0.049876,
    0.177344,
    -1.805470,
    1.384518,
    0.060365,
    -1.237765,
    -0.405138,
    -1.400099,
    -0.392319,
    0.994288,
    2.139653,
    0.139892,
    -0.666800,
    -0.028739,
    -0.302392,
    -0.638500,
    -0.189109,
    0.240229,
    0.606252,
    0.112510,
    0.213855,
    -0.094102,
    -1.053262,
    -1.052004,
    -2.015845,
    -1.383351,
    0.026382,
    0.589344,
    -0.714076,
    -0.727842,
    0.680204,
    -1.135355,
    -0.872183,
    1.140782,
    -0.526326,
    -0.532951,
    1.549218,
    -1.830498,
    -1.363163,
    1.014977,
    1.735907,
    -1.698763,
    0.146618,
    0.905493,
    0.608943,
    -1.177835,
    -0.236831,
    0.899135,
    -0.344841,
    -0.278455,
    -0.959738,
    -0.807822,
    0.477753,
    -0.612543,
    0.579739,
    -0.271888,
    -0.620639,
    0.544109,
    0.318921,
    -1.793306,
    1.534676,
    -0.000311,
    -0.554332,
    -1.840605,
    1.033111,
    1.036929,
    -0.237835,
    -0.282983,
    0.478999,
    -1.550927,
    -1.390993,
    -0.646033,
    -0.453760,
    1.801542,
    0.781840,
    -0.567190,
    1.671871,
    -0.049856,
    0.998049,
    -0.354370,
    0.380624,
    -0.319766,
    1.283107,
    0.614831,
    2.172130,
    0.114793,
    -0.409101,
    0.113778,
    -0.876807,
    -1.254809,
    -0.755065,
    -0.759731,
    -0.149350,
    1.561095,
    0.424035,
    -2.220944,
    1.163921,
    -0.940679,
    -2.279510,
    1.256141,
    -0.387913,
    1.382600,
    1.362965,
    0.532615,
    -1.641280,
    -1.129633,
    -0.764837,
    -1.109095,
    -0.303387,
    -2.172358,
    1.367783,
    -0.010528,
    0.211808,
    -0.417672,
    -0.134775,
    0.244617,
    0.315741,
    -0.636463,
    -0.938997,
    0.393011,
    1.557938,
    -1.021062,
    -2.128918,
    0.335361,
    -0.210727,
    -0.638280,
    -1.268877,
    0.165071,
    1.276410,
    -0.402574,
    2.438331,
    0.137854,
    -1.687274,
    -2.085624,
    0.190553,
    2.059551,
    -0.791018,
    0.056272,
    -0.457236,
    2.436145,
    1.329407,
    0.030195,
    0.176179,
    -1.881101,
    -0.517860,
    -1.456761,
    2.047434,
    -0.293649,
    -0.000529,
    -0.325709,
    -3.049962,
    -0.515517,
    -1.499437,
    -0.063478,
    -0.170968,
    -0.058350,
    1.293407,
    0.075863,
    -0.438497,
    -0.850154,
    -1.908127,
    -0.516624,
    0.063054,
    -0.603093,
    -0.158119,
    -1.764567,
    -0.265848,
    -0.016801,
    -1.713789,
    -0.356297,
    0.749158,
    -0.303798,
    0.028887,
    -2.095639,
    -0.349070,
    -0.246049,
    -0.563495,
    -0.652289,
    -1.043644,
    -1.063261,
    0.427120,
    0.119508,
    0.423760,
    -0.308334,
    -1.001365,
    -0.523754,
    -0.220544,
    -1.545444,
    -1.530653,
    0.406981,
    -1.069456,
    -0.170838,
    -2.032778,
    -0.996393,
    0.284089,
    0.464654,
    -0.140541,
    0.225340,
    -0.683101,
    0.787141,
    0.137527,
    1.552486,
    1.008026,
    -1.000450,
    -1.151253,
    0.153915,
    -0.385309,
    -1.393476,
    -1.423555,
    1.105742,
    -0.648000,
    1.580263,
    0.489071,
    0.307502,
    -1.330969,
    -2.010646,
    -2.570252,
    -0.841488,
    -1.186664,
    -1.222506,
    0.495981,
    -0.405744,
    -0.534209,
    -0.752940,
    -0.225052,
    0.674402,
    -0.594650,
    -0.150571,
    -1.064527,
    0.148858,
    -0.728252,
    2.364277,
    1.239449,
    -0.437544,
    -0.665252,
    -1.627416,
    -1.040517,
    -0.276641,
    0.341781,
    0.157669,
    1.581726,
    -1.144600,
    -1.113491,
    0.056803,
    -0.514974,
    -0.736211,
    -0.999438,
    -0.848030,
    -0.408209,
    -0.314943,
    1.013009,
    0.763412,
    0.882500,
    -1.320480,
    -1.213674,
    1.379853,
    0.768101,
    0.558665,
    -1.125318,
    -1.505559,
    0.544302,
    -0.507001,
    1.227454,
    -0.318807,
    0.796185,
    -0.289531,
    0.697863,
    1.949304,
    2.237913,
    0.546324,
    -0.136495,
    -1.720567,
    -0.253986,
    -1.225232,
    1.116037,
    -1.661619,
    -0.151454,
    -1.358020,
    -0.828892,
    0.188345,
    0.688590,
    2.184328,
    0.795647,
    -0.028781,
    -0.128502,
    -0.822364,
    0.939670,
    -1.921215,
    -0.107520,
    -0.389927,
    -1.910931,
    0.836743,
    -0.295928,
    -0.723133,
    0.055265,
    0.414670,
    -0.672609,
    -0.051933,
    -0.698829,
    -0.846526,
    -1.758744,
    -0.691546,
    -0.242796,
    -0.448090,
    0.100516,
    0.124913,
    -1.030100,
    -1.360710,
    -0.068130,
    -0.107053,
    0.318785,
    0.162679,
    -2.057522,
    -1.033197,
    0.280273,
    0.094339,
    0.119632,
    0.324111,
    -2.432551,
    1.317491,
    -2.163315,
    -0.536516,
    0.680296,
    -0.190260,
    1.593696,
    -2.212247,
    0.398396,
    -0.044280,
    -0.191165,
    -0.767408,
    0.433669,
    -1.001076,
    -0.082517,
    0.901241,
    0.221547,
    0.764145,
    -2.112944,
    0.202325,
    -1.122267,
    -0.590522,
    1.618346,
    1.550255,
    -0.526559,
    -0.499209,
    -0.819634,
    -0.164290,
    -0.671296,
    0.072929,
    -0.797459,
    -0.200089,
    -0.902237,
    -0.153108,
    -1.390070,
    1.688234,
    -0.796753,
    -1.680254,
    0.033068,
    0.877251,
    -0.530884,
    0.149107,
    -1.852591,
    0.629621,
    0.840902,
    -0.492242,
    -0.585656,
    -0.733162,
    0.383504,
    0.118383,
    0.597987,
    -1.195147,
    -0.139304,
    0.714275,
    -0.750621,
    -2.420041,
    1.486090,
    -0.331221,
    -0.645905,
    0.625515,
    0.674964,
    0.299162,
    -0.609045,
    -0.263716,
    -0.614236,
    -0.807170,
    -0.416853,
    -1.168573,
    -0.330090,
    -0.367485,
    1.678404,
    0.363558,
    -1.115408,
    0.429163,
    0.029456,
    1.675180,
    -0.920196,
    0.518225,
    -2.206915,
    -0.506113,
    -1.135906,
    1.272302,
    0.762483,
    -0.064629,
    1.004386,
    -1.768815,
    -0.979423,
    0.653051,
    -1.447602,
    -0.304389,
    0.779492,
    0.624661,
    -0.123175,
    0.719885,
    -0.278176,
    0.146949,
    0.592014,
    -0.541842,
    0.136970,
    -0.166234,
    0.837417,
    -0.957511,
    0.009587,
    -0.823589,
    0.920844,
    1.137847,
    -0.058561,
    -0.788570,
    0.638132,
    0.926013,
    -1.289064,
    -1.470805,
    -0.290181,
    -0.731977,
    -0.806032,
    -1.029761,
    -0.767713,
    -0.022162,
    0.362314,
    -2.020914,
    0.364763,
    -1.434442,
    0.142606,
    -0.190522,
    -0.973302,
    0.957068,
    -0.129303,
    -0.530218,
    -1.903601,
    0.722257,
    0.258894,
    0.785327,
    -0.947229,
    -1.123706,
    -1.515779,
    -2.070365,
    1.831573,
    -1.730927,
    -1.363173,
    1.401787,
    -0.260431,
    0.261080,
    0.336189,
    0.260006,
    -0.978560,
    0.753790,
    0.831592,
    1.377545,
    -0.169266,
    -1.078661,
    -0.930532,
    -0.199766,
    1.386941,
    -0.738994,
    0.176618,
    0.990320,
    0.495219,
    0.094876,
    0.570994,
    0.121422,
    0.556178,
    -0.393446,
    -0.768341,
    1.116022,
    0.848560,
    -1.552844,
    0.307493,
    0.176304,
    -0.476732,
    -0.258208,
    -2.257018,
    -0.998448,
    -0.592548,
    -0.797936,
    0.704203,
    1.854533,
    -0.920480,
    -0.143641,
    0.199416,
    0.630243,
    -1.798541,
    -0.034196,
    -0.251730,
    -0.514722,
    -1.221321,
    -0.870952,
    0.748905,
    2.248192,
    0.054971,
    -2.374441,
    0.343061,
    0.593183,
    0.426217,
    -0.262530,
    1.165535,
    0.452155,
    -2.273136,
    -0.194921,
    1.122709,
    -0.602550,
    0.089884,
    0.653619,
    1.343708,
    1.024656,
    0.419186,
    0.735130,
    0.533325,
    -0.449083,
    -1.602901,
    -0.392066,
    -1.332480,
    -1.303070,
    -1.190040,
    0.221422,
    0.453051,
    0.787060,
    0.451389,
    -1.035646,
    -1.382467,
    0.947705,
    -0.207851,
    0.384053,
    0.822423,
    -1.535405,
    -0.734616,
    -0.951456,
    -1.954040,
    -0.243778,
    0.752335,
    1.640427,
    1.969370,
    1.090631,
    -0.483924,
    0.492063,
    0.911215,
    1.271399,
    0.261875,
    -0.796555,
    -0.617366,
    -0.971932,
    0.598721,
    0.147611,
    -0.205633,
    -0.400039,
    1.543522,
    -2.149314,
    0.006934,
    -0.092684,
    -1.302003,
    -0.463706,
    -0.659372,
    -0.994636,
    0.247222,
    -0.073663,
    -2.329368,
    -0.521797,
    0.913384,
    -0.509822,
    0.173926,
    -0.078554,
    1.386371,
    0.537632,
    -0.249851,
    -0.286967,
    2.053604,
    0.581233,
    -1.735919,
    -0.055970,
    -0.798616,
    -0.340092,
    1.784669,
    -1.323066,
    -1.321455,
    -1.463736,
    -0.134813,
    0.573421,
    1.745306,
    0.342731,
    -1.181312,
    -0.046174,
    1.652952,
    -1.218078,
    -0.616071,
    0.603427,
    -0.783178,
    0.026169,
    0.488176,
    -0.866390,
    0.020809,
    0.664773,
    1.520017,
    -0.026748,
    0.811331,
    0.724328,
    -1.018798,
    -0.925665,
    1.201404,
    0.366612,
    -0.483802,
    0.718595,
    -0.557715,
    0.729299,
    0.218786,
    1.463444,
    -0.950589,
    -1.031785,
    -3.470578,
    0.806125,
    -0.282575,
    0.016534,
    -0.452043,
    -0.169328,
    -0.277254,
    -0.761106,
    0.119097,
    0.040650,
    0.013630,
    0.147554,
    1.588459,
    -0.308882,
    -0.835621,
    -0.322977,
    1.499352,
    1.040127,
    1.226994,
    0.259494,
    -1.447073,
    -0.145431,
    -0.044234,
    1.063109,
    -0.386485,
    -1.631781,
    1.141302,
    -1.555920,
    0.171436,
    1.008838,
    -0.371763,
    -1.191096,
    -0.354510,
    -0.102837,
    -1.701612,
    -0.655128,
    -0.920741,
    0.169343,
    -0.678995,
    -0.521647,
    -1.296353,
    0.251701,
    -0.924697,
    0.785673,
    -1.557034,
    0.685498,
    -0.388808,
    -0.521121,
    -1.003463,
    0.068026,
    -0.418098,
    -0.420071,
    0.130434,
    0.283412,
    0.729928,
    -1.287203,
    -0.518341,
    0.866657,
    0.968840,
    -0.457679,
    -0.640760,
    0.337828,
    0.799880,
    -1.920309,
    -0.346574,
    0.098827,
    -3.836354,
    2.114748,
    -1.188944,
    0.625924,
    0.451425,
    0.968756,
    -0.204068,
    1.928417,
    -1.585859,
    0.878763,
    -0.498329,
    -1.234466,
    -0.641455,
    1.077809,
    -0.364326,
    -1.314740,
    -0.843953,
    1.279725,
    -0.910524,
    1.370038,
    -0.054002,
    -0.770807,
    0.936032,
    1.183717,
    0.407078,
    1.574487,
    0.662713,
    0.382339,
    0.811024,
    -0.123400,
    0.984295,
    0.990982,
    -0.522374,
    -0.118234,
    -1.197819,
    1.490077,
    -0.437244,
    0.751900,
    -0.683565,
    -0.986507,
    0.179869,
    -1.321953,
    -0.932833,
    0.270610,
    -0.830378,
    -0.908359,
    0.016690,
    -0.413023,
    0.038016,
    -0.978110,
    0.381451,
    -0.269475,
    -0.318200,
    -0.976994,
    0.169763,
    -0.858379,
    -1.977114,
    -0.242239,
    0.667226,
    0.515562,
    1.808113,
    1.122012,
    -1.628268,
    -2.301321,
    -0.912078,
    0.506137,
    -0.471081,
    0.807279,
    -1.210939,
    0.489126,
    1.207837,
    -0.108719,
    0.731304,
    1.621571,
    0.384259,
    -1.255172,
    -1.016618,
    -1.037642,
    -0.945160,
    -1.463623,
    -0.341946,
    0.904979,
    -0.154553,
    -2.006268,
    1.318808,
    0.681163,
    0.261638,
    -1.786814,
    -0.622296,
    1.230504,
    1.393947,
    0.047811,
    0.814528,
    -1.847155,
    -0.581389,
    -0.381466,
    -0.071869,
    0.012247,
    -1.236267,
    -0.458883,
    -0.392665,
    -0.308457,
    0.321551,
    -0.133060,
    -0.671816,
    0.739723,
    1.761236,
    0.039752,
    1.937994,
    -0.249932,
    1.821713,
    -0.951567,
    0.555397,
    1.484224,
    -0.787248,
    0.947069,
    -1.544216,
    -0.078922,
    0.019065,
    -0.564083,
    -1.785156,
    0.573216,
    0.120067,
    0.707180,
    -0.778641,
    0.811971,
    0.404520,
    -1.998459,
    1.195397,
    -1.566638,
    -1.236364,
    -0.366066,
    -1.008364,
    1.082287,
    -0.130184,
    -1.536846,
    -1.295071,
    -0.849289,
    -0.732022,
    -0.396239,
    -0.561902,
    0.365189,
    -0.515529,
    -0.241731,
    1.803299,
    -0.752668,
    0.020404,
    -1.158376,
    1.457460,
    0.420484,
    -0.454789,
    0.766133,
    0.444950,
    1.859308,
    0.974115,
    0.326998,
    -1.156330,
    -1.094081,
    0.665477,
    -0.668629,
    -1.394854,
    0.026718,
    -0.111524,
    -0.526368,
    1.696834,
    -0.256363,
    0.677872,
    0.226946,
    2.685570,
    0.321712,
    0.126900,
    -0.096306,
    1.004097,
    2.287619,
    0.442907,
    0.463154,
    -0.287574,
    1.640897,
    0.287351,
    -0.191218,
    -1.628810,
    -1.340222,
    0.163429,
    -0.563941,
    -0.284122,
    0.308420,
    -1.521654,
    0.995929,
    -0.767244,
    -1.088435,
    0.131515,
    -1.061822,
    0.515059,
    -1.068559,
    -1.320920,
    1.699457,
    -0.535324,
    -0.147562,
    1.387284,
    1.119551,
    0.172888,
    0.992353,
    0.533322,
